doc_0 -3.2782402 -2.4593046 -1.7323393 -2.7001748 -0.9213457 -0.14882712 -1.3683683 -3.85569 -1.0098984 -1.0212013 5.021584 -1.9920483 -2.4635518 -3.018778 -1.1957065 -1.8333511 -2.1123092 -0.3171486 -4.020483 -1.1064272
doc_1 -8.113612 -9.288435 -3.0962064 -3.8422189 1.6392683 6.4182596 -4.110972 -9.759614 2.6572042 -5.912837 2.0059752 -5.3990455 -8.220222 -8.031083 3.630072 -2.9159818 -3.186975 -0.80981344 -8.689469 13.724041
doc_2 -1.1283619 -4.314676 -1.1381809 -3.1640599 -5.416093 -5.49518 -2.6614053 -2.4162266 -2.7764964 -3.9423754 -4.091542 -2.472738 -3.2480001 -4.1095004 -1.7579776 8.801206 -2.6697981 -7.040093 -4.192736 -3.873395
doc_3 11.401764 0.6145088 -2.8304083 -6.113377 -5.796241 -7.798911 -1.9324453 0.43534455 -6.8488646 -5.7997246 -10.108485 -4.908694 -2.2117963 -2.5595891 -4.883349 -3.2069385 -3.1859052 -10.387077 -0.6234433 -9.35375
doc_4 -5.3549943 -5.824139 -5.782335 1.66232 -5.83304 -5.070059 -5.045418 -4.3610773 0.055639096 7.293372 -4.314197 -2.4315884 -2.8237877 -3.693291 -2.9412374 -0.66099054 -3.5976768 -5.9817877 -7.8638215 -5.177141
doc_5 0.058136486 1.0410094 -1.196881 -4.691635 -5.465362 -4.649782 -2.2813919 3.5954962 -6.451555 -4.9174438 -6.0870056 -3.197445 -1.4145916 -0.50317645 -4.3255906 -2.2430463 -2.6401439 -6.0652103 0.77060884 -5.747967
doc_6 -6.9097056 -6.1484814 -3.0287902 -6.030973 12.072029 3.8139439 -3.1303725 -10.410433 -4.0007653 -4.999152 -1.2235712 -4.4163785 -5.062178 -4.6825757 -2.1994987 -5.294795 -1.5239068 0.039991513 -8.254204 -1.9200822
doc_7 8.585878 -0.36836585 -2.2138643 -3.7118542 -4.846085 -6.484433 -2.16191 2.1080277 -4.913255 -3.1565912 -6.021522 -1.831218 -0.38630357 -2.632432 -5.0234985 -2.4716506 -2.5257466 -6.0601807 -1.2744149 -6.9014454
doc_8 -0.8535848 -0.16820265 -2.3650112 -2.606735 -2.508883 -2.7758234 -1.1123848 -1.1926993 -4.7359614 -1.0567434 -4.37364 -2.4130485 -2.5939543 -0.65165585 -4.4417357 -1.7533164 -2.9705696 -4.296776 5.976748 -2.7991252
doc_9 -0.02977862 -0.4868327 -2.3393495 -3.3762403 -6.937609 -4.9864593 -3.7977052 4.546186 -5.7047925 -3.516285 -7.204593 -4.365929 -2.2998683 -2.1556952 -4.6651626 -4.8346205 -3.407407 -6.727524 -1.560215 -5.8614197
doc_10 -3.2417245 -2.8372498 7.0349026 -5.0358543 -2.3231945 -1.2605064 -3.7118714 -3.4600177 -3.6204789 -5.632429 -2.1209304 -3.7639456 -4.14531 -2.6966715 -1.7369977 -3.3226743 -4.1480737 -2.5670252 -5.7876506 -2.3217125
doc_11 -2.9635286 -5.38386 -4.8959174 0.7021332 -5.0792904 -6.414204 -4.8245068 -4.2829742 -4.261553 10.626241 -5.8505945 -3.885683 -2.141429 -2.546557 -5.880417 -2.8380165 -1.4299173 -5.246069 -5.788378 -5.1878967
doc_12 -4.6767807 -6.176795 -2.430072 9.345112 -3.9624574 -3.887794 -2.8678184 -4.093332 -1.5731506 0.70079994 -5.2763457 -3.8953202 -3.6768754 -3.314043 -3.8156507 -2.0436025 0.060884684 -2.6619308 -5.4010215 -2.363477
doc_13 -6.1172647 -3.834883 -2.2753763 -3.2082443 -1.3242245 -3.3286607 -5.944194 -4.2028265 -5.9141197 -2.7867284 0.30065665 -4.629923 -2.4625413 -0.21235028 -3.2476137 -2.8843496 -2.1216128 6.441449 -4.666855 -1.2151761
doc_14 -8.308827 -8.258169 -3.4787252 -3.7646384 11.101658 3.8111541 -4.565557 -10.660659 -0.05014611 -5.3197007 3.1305623 -5.5025096 -6.320598 -5.041767 -0.26976812 -6.947968 -3.3539395 2.0755382 -9.847855 2.3794787
doc_15 -6.7858524 -3.2769892 -2.5975323 -4.5459805 -1.007163 -1.5615981 -3.1952422 -6.1908717 -5.524131 -3.7131133 -0.24088806 -2.4066262 -3.044307 -0.13213676 -3.3578105 -6.033666 -3.0339832 12.549969 -5.1308646 -2.267103
doc_16 15.183847 -0.21801147 -2.3964813 -6.2359767 -7.7441974 -9.078412 -1.9579589 3.2488286 -7.685487 -4.668453 -11.210285 -3.6289985 -1.0321187 -2.5688176 -7.672039 -3.3633506 -3.953052 -10.167073 -0.29428867 -9.491464
doc_17 -0.44823566 -2.171454 -2.7717364 -4.327992 -3.8631225 -4.716119 5.8911858 -2.763074 -2.796352 -1.8125856 -5.336132 -2.2325525 -2.834715 -3.1315415 -2.692442 -2.9083555 -2.7542377 -4.128756 -3.1497638 -3.9157708
doc_18 -4.9933558 -5.390323 8.852464 -3.77716 -1.5199711 -3.25836 -3.0394003 -3.76776 -6.95806 -4.8421397 -4.5493245 -4.8301744 -4.6820083 -3.333492 -2.1185348 -2.9451983 -2.6342819 -1.7210617 -6.714677 -4.4144163
doc_19 -4.6738877 -6.429814 -2.85881 0.98639756 -3.186998 -1.7269343 -1.1720366 -5.3810506 -1.0659882 4.471549 -3.7832155 -2.900386 -4.4862113 -3.8504934 -2.6958356 -3.3455262 -2.5249045 -2.464795 -6.141565 -2.3003774
doc_20 -6.8402257 -6.015343 -3.3030903 -2.7501848 -1.3121501 -2.2792575 -4.7589664 -7.0338874 -2.6786945 -3.8019307 1.3985976 -2.6289663 -3.9247918 -3.0437407 -2.633658 0.88195676 -0.7656702 6.90869 -6.59492 -0.89239615
doc_21 -4.546025 -3.2268167 -0.5486034 -3.1676428 -1.1551963 -0.9165583 -1.6481485 -3.945662 -1.5849696 -2.760574 3.3372447 -2.607295 -3.224193 -2.373554 -0.18152356 -0.74975467 -1.4843693 0.4218292 -4.5833287 -1.0227355
doc_22 -7.774503 -6.6898866 9.866485 -4.569444 -4.7825093 -3.250127 -4.2860284 -5.3489776 -4.224114 -5.006736 -5.7146482 -6.3893914 -6.9373393 -4.513289 -3.6050475 -4.8478556 -4.4457073 -1.9606886 -9.873858 -5.5648804
doc_23 -7.243659 -7.140346 -3.2001681 -4.255563 3.211524 11.178109 -3.8071156 -10.615834 2.0274005 -5.445173 1.4741583 -6.3230934 -7.236237 -7.421725 2.540276 -5.305121 -4.8695064 -1.8901265 -5.4513493 4.779729
doc_24 -9.07563 -7.245322 -2.9868038 -6.7997417 4.097779 10.728525 -5.5030956 -11.3602085 3.6186547 -7.0493846 2.4072301 -7.5695324 -9.736736 -8.972694 0.25375003 -7.323566 -4.9445066 -1.6132549 -10.735355 5.8009
doc_25 -1.501176 -2.6444492 -2.8806062 -2.919576 -2.15162 -2.7364743 -2.5167084 -1.6512293 -4.228754 -2.1791337 -2.431508 -3.4799542 -1.8805104 -2.296141 -3.3261971 -2.0143132 7.354013 -3.2837813 -3.0317473 -4.815695
doc_26 -3.5407453 -5.592252 -5.109498 -4.0140605 -4.1410623 -4.1292467 7.861164 -4.9139023 -0.87292975 -5.1562257 -6.68288 0.41215423 -7.4505424 -5.4564056 -1.0992548 -3.886221 -3.5814843 -5.5553284 -7.6669645 -3.8466704
doc_27 -1.8469396 -2.583831 4.5760274 -4.027674 -3.095322 -1.1583586 -2.669917 -2.1217923 -4.084768 -5.0411096 -4.118715 -4.3655095 -3.9615908 -2.4282064 -0.6650923 -2.9753969 -2.1762962 -3.3700912 -4.286825 -2.5092344
doc_28 -1.2742037 6.3194156 -2.5003057 -3.9311492 -4.6383457 -3.0462809 -2.062115 -0.49511904 -4.0419664 -3.8073316 -5.034674 -2.6043222 -1.291286 0.6100865 -4.941279 -4.4068565 -2.9661448 -2.6093955 3.6994724 -3.3473544
doc_29 -4.9844337 -6.6809645 -2.772494 -5.4458375 -3.0539591 -1.5207734 -2.3559968 -5.43533 0.70509136 -5.5405183 0.6002823 -2.1930623 -6.039272 -5.7052917 7.3986483 -1.6954675 -2.8012424 -3.1177895 -7.520262 -0.34620076
doc_30 2.2566686 -1.1747146 -1.4652549 -3.8874705 -4.154929 -3.980521 -2.54664 -1.0172093 -3.0867395 -3.3397598 -5.0913587 -2.3454616 -2.13559 -2.5479827 -2.656142 -2.0414948 -1.88703 -4.735084 -1.7263609 -3.5435557
doc_31 -2.4352007 3.5901084 -2.8458881 -4.9820457 -7.0418067 -6.9637957 -4.759751 -1.9599452 -12.615395 -5.552745 -10.272562 -5.4344783 -0.9049419 10.297038 -8.291941 -5.958799 -1.7706375 -4.5298405 2.3883967 -8.513095
doc_32 -1.1522499 -4.5588408 -2.5008779 -3.1421685 -3.8039412 -3.0738251 -3.8077729 -3.187321 -2.8112526 -1.7359806 -0.49734265 -1.1373854 -2.4969828 -3.608601 -1.8974408 10.675859 -1.1964031 -4.4646764 -3.371744 -2.4809349
doc_33 -3.4359078 -5.0014176 0.5932283 -2.71327 -3.6035347 -4.345486 -4.0455956 -3.9644783 -5.8138485 -2.9904783 -3.5356538 -3.6770961 -2.8630252 -3.2624168 -3.410309 9.089405 -2.2041974 -3.7424576 -4.7385254 -3.5519156
doc_34 -2.7367568 4.99676 -3.1256597 -4.6988893 -3.394609 -0.57635546 -2.96176 -2.923599 -2.1287732 -4.3381352 -2.2602797 -2.1490276 -3.2442405 -1.2933016 -3.2274783 -4.078428 -2.6625316 -3.1851926 -1.5902554 -3.116351
doc_35 -2.1443691 -2.973169 -3.4957776 -3.0801263 -2.7088912 -4.4956098 -3.701083 -4.4793625 -4.4642706 -3.5577574 -4.24486 -3.2852833 -2.7906783 -1.7498649 -3.013564 -2.5624928 6.24717 -4.1660233 -3.847 -4.574061
doc_36 -3.918653 -2.6205857 11.421926 -5.957655 -4.1818533 -1.8316048 -2.9576554 -4.153688 -5.009305 -5.709351 -4.6640573 -5.8918414 -5.363653 -3.9628594 -2.932485 -4.5497727 -4.785567 -3.7849762 -6.562288 -4.801546
doc_37 -5.2553105 -6.484916 -2.29718 -3.3438768 -1.2172865 -4.1752405 -2.9337213 -6.0382056 -2.1115587 -3.1837492 -2.5578768 -1.3972156 -4.1495953 -3.3312144 -2.1236858 7.4105706 -0.8796972 0.64449024 -5.810653 -4.817587
doc_38 -0.77979463 0.8873153 -0.8342208 -2.5254638 -3.2236972 -4.2327952 -2.621077 -1.472838 -6.8623524 -2.931602 -4.9861507 -2.361467 -0.18327625 7.1125374 -4.686101 -2.757707 -0.26029775 -1.3059409 0.12771086 -5.1498165
doc_39 -3.1785698 -3.2483783 -4.8845863 -5.1335154 -6.671213 -8.233453 0.08562395 -4.119408 -4.038073 -4.095711 -5.9096355 8.8758545 -3.8109353 -3.9820943 -6.2262774 -2.9798775 -3.2176538 -5.428918 -4.3285317 -7.677385
doc_40 -2.7754917 -2.190684 1.4298868 -3.5878026 -3.1226394 -0.07674541 -1.42314 -3.3832636 -2.5252922 -2.5459862 -2.5517032 -1.4971989 -2.1300583 -1.2335783 -2.6621783 6.2575307 -2.038372 -2.0979426 -1.5125573 -2.3110034
doc_41 -2.7051764 -5.44735 -6.592478 -8.805332 -5.3356338 -6.9603124 -5.372622 -7.394614 -6.04019 -6.864487 -10.218947 -6.6645203 -7.5360546 -7.917242 -5.5762634 -5.444118 10.230093 -8.566192 -7.2701983 -9.092811
doc_42 -5.572674 -7.293644 -3.3904858 -3.9822314 -3.2174754 -0.80677426 -1.3601294 -6.1990266 1.1794212 -5.8047423 -1.8949754 -3.910769 -7.1598616 -6.601411 7.3304 -1.8280963 -2.9634535 -3.5967054 -7.9077373 0.95281404
doc_43 -4.5819297 -4.8607287 -3.435822 -2.627117 -1.881726 1.5910718 -2.4376807 -4.6790023 3.4138136 -0.9773183 0.7154832 -1.6420689 -3.4138474 -5.236625 -0.064378545 -2.3139355 -2.5172994 0.13598163 -5.310172 3.0888517
doc_44 -2.7709653 -3.3645492 -3.0939465 -1.5422307 -2.9595115 -1.3768165 -2.1832438 -3.6812687 5.844225 0.2804021 -1.3343232 0.11426378 -4.552676 -5.663612 -2.2592785 -1.9865699 -3.4773834 -3.8723576 -5.5478663 -1.8840339
doc_45 -3.7232182 -5.737573 -3.646587 10.723961 -3.4205647 -2.9409947 -2.3712156 -3.4476862 -2.1785088 2.0917609 -6.2263536 -3.9456534 -3.6885972 -1.7510828 -2.3940918 -3.3136692 -2.068087 -2.6778426 -4.9743834 -2.85411
doc_46 -3.102 -3.102135 5.522868 -2.5774555 -3.9150224 -3.2775538 -2.670356 -3.2265408 -4.56936 -3.1392612 -4.525117 -3.3468995 -3.367882 -1.1173195 -2.1645238 -2.57159 -2.4243925 -0.8000842 -4.0253816 -3.1739857
doc_47 0.7118829 9.78555 -2.7930253 -6.8136306 -5.925496 -5.6811996 -3.278633 -0.6202537 -7.8585334 -5.698244 -6.2711816 -4.6323314 -0.9377978 -0.88695896 -7.0533347 -6.133382 -5.4832797 -5.985262 4.691972 -4.0404882
doc_48 -7.004174 -10.036112 -5.860256 3.65099 -11.116861 -10.686539 -7.074269 -6.8345556 -6.0322657 15.701495 -10.487504 -6.52685 -4.841943 -5.193535 -11.192736 -5.4403462 -5.420288 -6.6941013 -9.82031 -9.590879
doc_49 1.6477896 0.928018 -2.3170125 -2.087944 -4.176858 -2.7721002 -0.9542739 4.3945827 -3.1465464 -2.3290508 -5.087463 -1.9966136 -1.8322583 -1.8220226 -3.0485537 -3.330636 -1.9388645 -5.908942 -1.1196891 -4.5690656
doc_50 -2.4148257 -3.4476893 -3.3583634 -4.5023894 -3.5483012 -2.8036113 6.426298 -3.9583035 -1.6676198 -4.30395 -3.1510787 0.2715545 -4.2229953 -3.868311 -1.8818471 -4.1572137 -3.9584458 -4.1023555 -4.251548 -2.8148534
doc_51 -2.2758808 9.530681 -4.5527086 -10.563414 -11.714755 -10.012804 -7.5647607 -1.7136766 -16.130098 -9.994154 -10.652007 -8.070188 -1.4488796 6.6254253 -13.167676 -7.854787 -4.5331964 -7.993363 4.9036775 -12.764185
doc_52 -1.911836 9.234344 -4.0583553 -6.3306556 -5.8252125 -5.710172 -4.4421034 -0.9355959 -9.440195 -5.3175597 -5.871878 -4.3971496 0.4999335 3.06302 -8.668672 -5.77747 -3.8940594 -4.322199 5.3469396 -6.3566084
doc_53 -6.5435743 -6.247853 -2.3428001 -4.6076283 1.890836 9.253266 -3.2238193 -7.8857093 3.856549 -5.0858145 0.7964185 -5.008198 -8.042867 -8.434588 4.3130198 -3.0923252 -3.3635256 -2.2019649 -7.117394 2.7716544
doc_54 -6.3976903 -6.2350507 -3.9334962 -5.1720014 0.067680724 1.6696298 -4.291285 -6.5268674 -0.7445487 -5.6291866 -1.6550027 -2.3617694 -5.534322 -5.074271 -2.4700642 -4.8469605 -3.6791115 -0.78829616 -7.218226 4.151466
doc_55 -7.3394494 -9.502586 -2.94111 -5.1324553 -1.0898396 2.1790063 -1.1548258 -8.224495 0.9362059 -7.2365427 -0.6306164 -6.851763 -7.068378 -8.07257 16.53077 -5.030212 -3.1793609 -0.34344316 -10.766046 6.060686
doc_56 -3.670924 -3.422342 -3.3564289 -3.651309 -3.501905 -4.4314337 -2.0813768 -4.2092423 -0.0059271846 -2.6269364 -3.4005177 7.097462 -3.674894 -3.1214995 -3.343102 -2.7465367 -3.816742 -1.7247628 -4.511767 -3.3816133
doc_57 -2.759692 -3.429771 -3.1926308 -3.7017753 -5.2040453 -2.298945 -4.1219172 -3.1478672 -3.9182255 -3.7390413 -3.3848588 -4.082579 -3.089035 -2.807721 -3.8491251 3.2663884 -1.1220425 -5.103077 -2.576247 -3.7885485
doc_58 -8.479099 -7.599954 -1.0991055 -3.4023976 0.9935384 -3.0160582 -4.778962 -10.22384 -6.3570395 -4.282501 -1.5809877 -5.2443943 -5.489472 -3.4269369 -4.0268807 -6.3589077 -1.7382413 9.9384 -8.085593 -2.4402087
doc_59 -2.2181172 -4.7338834 -4.8875065 -1.7227693 -1.6968929 -5.069353 -4.091113 -3.977829 -2.2171693 -2.8372078 -7.5155926 -4.561569 -3.2672925 -3.0564406 -4.1718407 -1.3282864 14.046965 -4.3611546 -5.744329 -4.819252
doc_60 -3.3995261 -6.5369062 -2.9785705 -5.409309 -7.3650846 -9.911031 -6.855928 -2.985679 -6.0044374 -4.486432 -4.8591266 -4.935427 -1.1155013 -4.801713 -3.9762714 12.903998 -2.1244051 -8.143568 -5.7879167 -6.5645866
doc_61 -0.5433445 -0.34095657 -1.8864509 -4.0261254 -7.628338 -5.50155 -3.201425 6.6380715 -5.445918 -4.9992447 -7.109958 -5.0823383 -2.2931132 -3.138265 -5.479392 -4.5329657 -4.174839 -7.3262334 -2.970413 -6.79817
doc_62 -3.0920155 -2.3147633 0.80205077 -3.3246217 -3.497244 -3.2371392 -4.239365 -1.7963383 -4.7698407 -3.1850998 0.27294037 -3.084714 -2.3786242 -2.4999044 -2.3046978 9.74689 -1.505121 -3.4201727 -2.6843307 -3.8987772
doc_63 8.824259 -1.9081367 -3.7245886 -6.985466 -9.19914 -9.802931 -1.7730513 0.87419313 -8.809762 -4.3861165 -12.278945 -3.5451872 -2.5960484 -3.2802663 -8.240979 -4.6247854 -4.391452 -11.47411 -2.206116 -10.368756
doc_64 -1.4589703 -7.121054 -3.7313442 -3.709647 -7.6910615 -7.625969 -5.55557 -2.8813353 -6.3944836 -3.2182114 -3.941922 -2.5418773 -3.188319 -5.3597965 -4.1845245 16.24655 -1.616584 -7.4761834 -4.385041 -5.886829
doc_65 -4.791095 -3.2431724 -2.042534 -2.5926259 -0.9177465 -1.2009106 -2.6349876 -4.8090124 -3.506312 -2.335545 0.14022806 -1.3784783 -2.4734945 -0.80033565 -2.2772567 -2.367543 -1.6992216 5.6499705 -3.5585785 -0.38905174
doc_66 -5.663082 -4.999219 -2.9398327 -3.274338 2.149669 6.615947 -1.8662131 -6.031467 -0.87123805 -5.0370593 1.7027838 -5.5155153 -4.99559 -5.1507897 0.9325716 -3.640141 -1.7857158 -0.56952727 -5.927712 3.8738165
doc_67 -3.6354015 -5.1221466 -3.5744774 -0.2747381 -5.4334755 -4.500543 -4.0628233 -3.3251016 -3.956073 10.41674 -4.4814525 -3.9363816 -1.8473966 -2.3520849 -6.168252 -3.2456076 -2.698662 -4.322887 -4.677667 -5.2235904
doc_68 -5.6312222 -4.2156277 -1.2725663 -3.7299633 0.1241646 -1.154993 -3.7169254 -6.700997 -4.2619457 -4.4556127 0.43584722 -3.7464442 -3.725799 -1.8808105 -1.5194414 -3.6993804 -1.9941285 7.4228272 -5.362584 -0.88639176
doc_69 -0.71232986 -2.1221724 5.428484 -3.4304602 -2.8750937 -2.7989223 -1.9661013 -1.7605481 -4.1565046 -4.404708 -3.8171806 -3.0422492 -3.1820133 -1.8475493 -2.1883225 -1.9036081 -1.7779132 -2.8882446 -2.3714545 -2.9399188
doc_70 -3.6801176 -4.070675 -2.73221 -2.6557703 -1.1259274 -0.38511705 -2.8887637 -4.168491 -1.8164679 -3.5485878 -1.6268514 -0.8311736 -3.4752743 -3.8563693 0.55505776 -2.1154263 -1.2738227 -1.7135909 -3.7771626 4.3017097
doc_71 -5.5495596 -4.0939655 -2.8370996 -6.2365813 12.782082 3.2361844 -3.4989526 -8.353844 -3.3414297 -5.0065126 1.4618802 -4.7398367 -4.0254164 -4.58321 -4.1002865 -5.359142 -2.097384 -0.38858098 -4.894714 -1.8837712
doc_72 2.840265 -1.8227419 -1.5214574 -3.16846 -2.769869 -3.6811578 0.6930091 -1.0674192 -2.7026148 -2.5522203 -3.7711954 -1.3116959 -2.1029649 -2.1807997 -0.84627765 -2.5233903 -1.674454 -3.0075252 -1.8040001 -3.8243291
doc_73 -1.1873708 2.854294 -0.7729564 -3.853125 -4.7486215 -3.7434783 -4.2800035 -1.225594 -6.455327 -4.315555 -3.5344245 -3.6328535 -1.0424622 0.14470924 -6.119495 -3.014055 -2.5347884 -3.7051888 1.9539609 -4.344635
doc_74 -4.0643377 -3.033692 -3.903958 -2.846255 -0.47799516 5.9820075 -1.7832721 -4.655595 -0.39768448 -3.7956665 -0.6842266 -3.8362913 -2.2825754 -4.521248 -0.7265837 -4.255357 -3.6720028 -1.7037379 -4.193462 1.2211359
doc_75 -2.9559958 -2.2955172 -3.8772178 -3.27524 -4.1999793 -4.30438 -2.941135 -4.181939 -4.892314 -3.579662 -5.3474565 -2.535809 -3.0020642 -2.0187683 -3.6610844 -2.8452454 6.448733 -3.015562 -3.6043894 -4.559006
doc_76 -4.644909 -5.6052537 -3.6168194 -2.2232358 -2.8647702 -3.4858055 -3.2520676 -5.0805335 -0.9096917 7.7814937 -3.8964713 -1.5967133 -3.687919 -5.266591 -5.276209 -1.9080914 -3.632055 -4.1641784 -6.6797085 -4.9650707
doc_77 -4.626648 -5.2984085 -3.3841934 -6.1710224 9.943713 1.3713557 -1.9995499 -7.816088 -2.4961352 -5.928263 -0.5156087 -3.7690346 -5.4945874 -5.556784 -1.9129305 -4.6165814 -1.7291114 -2.9459865 -5.486461 -2.8068593
doc_78 -4.149101 -7.0989428 -2.279274 -2.2396846 -3.4337044 -4.2892804 -3.0231574 -4.2046247 -5.2481966 -4.5906515 1.332135 -2.9901438 -3.8938024 -3.1060503 0.62079114 10.444381 -1.2433841 -1.0760993 -5.18541 1.3867214
doc_79 -1.5628767 -1.4325607 -2.6318548 -4.9323893 -7.462952 -8.884738 -5.9784513 -0.2466892 -9.703732 -3.2905378 -5.012724 -4.59924 8.771483 -0.4609364 -7.317188 -2.99219 -4.080217 -5.9134398 -1.4414082 -8.212374
doc_80 -1.829835 -1.742603 5.88219 -4.145977 -2.2716117 -2.7067761 -2.7573934 -2.1648705 -4.092792 -3.5486107 -4.392699 -2.9058425 -2.433114 -1.7322667 -2.5482354 -2.565567 -1.9045177 -3.5776112 -3.1873205 -2.723836
doc_81 -9.656184 -7.632263 -3.058312 -4.5314803 1.5802741 4.0394044 -6.294566 -6.9128413 -1.548265 -2.9363546 14.678947 -6.4200587 -4.9777007 -6.689424 -0.4330742 -3.3880982 -4.583161 1.4482994 -7.735885 0.64813554
doc_82 -3.3648815 -3.8498871 -3.280101 7.0119815 -6.0082536 -5.329275 -1.292744 -2.462347 -2.2412474 0.7141949 -6.5801706 -2.6945016 -2.680704 -2.0049133 -2.813361 -1.9025844 -3.2510052 -4.555942 -4.6426134 -2.75314
doc_83 -4.39558 -5.7867646 -3.2946384 -4.859833 1.8045547 -8.957646 0.82098 -4.5154986 -3.961925 -3.7127852 -4.948234 8.32812 -2.6848292 -2.9909391 -6.1099014 -3.5783293 -3.9714825 -0.59562373 -6.6123133 -3.0668612
doc_84 -3.506836 -2.027097 -3.7343707 -7.1338344 -6.2743435 -8.707219 -7.783287 -4.982428 -11.359508 -7.2595015 -9.524313 -6.720811 -3.3471777 -0.85488576 -7.356532 -4.0840178 9.849929 -6.478767 -2.897509 -9.017856
doc_85 -5.7712955 -3.394556 -3.3735542 -4.246255 -1.444215 -1.4297473 -4.328374 -4.191775 -2.0776684 -2.9946346 8.285621 -3.335416 -2.3080485 -4.3867583 -1.8267123 -1.0974994 -2.1282475 -0.6750811 -5.789236 -1.2429458
doc_86 -6.6016254 -5.649634 -2.447514 -5.143655 5.1862106 0.4116233 -3.4485955 -6.4925966 -1.3179054 -5.2148185 2.135642 -2.4477477 -4.1984615 -4.541535 -1.9288508 -3.1357026 -3.174997 2.7372847 -7.9786024 -0.26923683
doc_87 -3.6393557 -5.3451834 -1.8995596 11.669459 -2.5133984 -2.9378006 0.29535896 -4.1848216 -0.56871015 2.789151 -4.8138146 -1.6568176 -2.9109318 -2.1225517 -5.5248394 -1.830191 -1.3653231 -1.5959929 -3.0906382 -3.0496962
doc_88 -8.369879 -6.040172 -3.0850508 -4.783402 1.529858 0.5995202 -5.450656 -7.6152515 -0.87934995 -2.4446192 16.724848 -2.981886 -3.896536 -6.4528747 -0.2635616 -1.4960172 -4.6419697 2.4683313 -7.6052628 0.46422172
doc_89 2.0468738 1.8338461 -3.8831968 -1.8005271 -9.371316 -8.713233 -2.5284827 9.6088915 -5.9006586 -4.4843664 -7.193993 -2.7032924 -1.6090268 -1.2228572 -5.814394 -2.856691 -5.2137265 -9.830751 -0.9901312 -7.5372972
doc_90 7.3256164 -0.8496689 -1.2231656 -4.3691754 -5.27795 -4.881024 -2.6248934 0.057884246 -4.7776065 -3.5006213 -7.702497 -4.487809 -2.1618109 -2.5794594 -4.488333 -2.6349032 -2.7321134 -6.2960734 -1.7987553 -5.833381
doc_91 -2.368105 -2.3570392 9.267343 -2.7690592 -4.556252 -4.536586 -4.524408 -1.3915449 -5.861261 -3.657282 -6.789432 -3.5724304 -2.4136393 -1.8899376 -3.7476926 -2.038966 -2.2789464 -4.154941 -4.49243 -4.2329216
doc_92 5.3732524 -2.0536416 1.0925835 -3.664984 -3.8023825 -3.4818165 -0.7809058 -1.8531983 -3.6529434 -4.0876765 -6.3938074 -3.1041002 -3.1235034 -2.7273612 -2.7918081 -3.0348842 -3.6643393 -4.488754 -2.709332 -5.6615434
doc_93 -2.2225814 0.6368424 -1.692722 -2.483872 -3.6851532 -2.7854283 -2.7382412 -1.288618 -4.695834 -3.377423 -2.774138 -4.0372777 -1.2209285 2.4017797 -3.0163262 -2.7207952 -1.3872201 -0.81177074 -0.41228515 -2.4474158
doc_94 -0.0033727256 -0.5355055 -0.6772314 -2.5844195 -4.4402146 -5.0563574 -2.2707627 5.041868 -4.50833 -2.8417485 -3.9137793 -2.8548412 -0.845566 -1.9359424 -4.5956225 0.023065066 -1.9642841 -4.6263533 -1.4073576 -5.1892304
doc_95 -3.4673548 -3.900192 0.6206745 -1.7696112 -1.9848081 -0.6171978 -2.3244216 -3.589852 -1.24648 -1.7891377 -1.4705873 -2.1859064 -2.6367247 -2.3467863 4.9417825 -1.144067 0.27606738 -1.8614153 -4.418431 -1.2993451
doc_96 -4.043795 -4.669827 -2.6140437 -2.992815 3.821426 1.5453565 -1.8811406 -5.3395686 -0.41702023 -4.059695 0.2556314 -3.992742 -5.0385957 -5.7708893 -0.7696732 -2.2609684 -2.3428946 -0.72563714 -5.3816905 -0.45351374
doc_97 -2.4761894 -5.7832923 -2.580449 -1.0885617 -3.7761073 -4.44862 -4.520101 -2.0393794 -1.8566325 -1.3585172 -1.8894818 -2.5587497 -3.4706945 -4.743033 -2.1032765 11.187113 -1.7823628 -6.5199194 -5.0559564 -4.785969
doc_98 -7.8870897 -5.992775 -3.1786757 -5.851367 -1.718676 -0.10329385 -5.2128 -5.8829007 -2.5862117 -6.5469165 9.331648 -5.7642674 -4.566689 -5.3310976 -0.039318785 -2.728542 -4.4610314 -0.87669885 -6.6859293 -0.49629423
doc_99 -4.1811047 -2.9246933 -0.7028734 -2.8385262 0.9317715 5.5992413 -1.7704532 -4.6936793 -0.8460159 -3.3194566 1.6784023 -4.526017 -4.2939773 -3.324866 3.2485218 -3.5880563 -2.37812 0.86558235 -4.827523 -0.6407431
doc_100 -6.1867537 -6.488658 -5.5817814 0.3523845 -7.149248 -6.175929 -6.2923174 -5.7517567 -3.666617 12.87315 -6.5819473 -4.5760393 -3.5750043 -4.5851464 -7.622744 -5.534848 -2.790855 -6.488898 -7.5544047 -7.1523824
doc_101 -1.2466966 -5.9742484 -3.6332822 -1.7709253 -0.37453836 7.193512 -1.2073091 -3.2378073 2.888365 -3.3625696 0.09026595 -5.3070574 -6.058509 -6.515006 -1.002953 -4.8050523 -3.2193177 -2.3225598 -3.5263228 0.97437286
doc_102 -2.0732853 -3.2944715 -2.8193858 -4.4370728 -2.0751119 -4.74375 -3.3231218 -3.5807116 -5.1974645 -3.8379498 -5.6673923 -2.9687324 -2.8561373 -2.2670503 -2.5827842 -0.36803493 7.0016136 -4.948405 -3.1389554 -6.044975
doc_103 -12.662354 -11.925089 -6.9400024 -7.411012 0.47795308 -0.27048016 -7.786892 -13.893385 -0.934879 -7.537843 11.652158 -5.8814535 -9.459769 -10.699764 -1.7172151 -5.4381046 -6.953243 1.0777663 -14.832536 5.3725843
doc_104 -4.3259215 -5.6823134 -2.3472517 -2.4328225 -0.26709995 -1.3790421 -0.3961724 -4.8313737 4.5421877 -3.6421933 -1.7548008 -1.3120501 -5.530819 -6.2817016 0.98383135 -1.6961594 -2.214111 -4.0992684 -7.397259 -0.39473918
doc_105 0.5159994 -1.3754303 -2.8825736 -5.3595166 -7.6001215 -9.81988 -3.6447222 2.0803602 -7.575879 -2.9850097 -5.9972763 -3.0505567 7.513559 -1.7160949 -6.680179 -2.3583088 -2.3285084 -6.08682 -2.3021967 -8.4648285
doc_106 10.177521 4.756581 -3.5414255 -6.641139 -4.258602 -5.07792 -1.8216301 -0.3390272 -6.7726355 -5.1445303 -9.931791 -4.3793654 -2.0897012 -1.7183514 -7.4402704 -5.875508 -2.4749527 -7.9316373 -0.26040012 -8.706502
doc_107 -3.9788616 -5.1087093 -4.3815556 -0.6537887 -1.4709466 -0.39993492 -0.8328415 -5.449712 14.342606 -0.8611457 -0.07910897 -0.26309517 -5.9398146 -7.259782 -1.45999 -1.6455829 -2.0068293 -2.9531014 -7.9061165 2.0063033
doc_108 -6.44742 -7.5125833 -4.5299926 4.7618456 -7.8809557 -5.3264656 -6.61832 -4.9378495 -4.247779 13.682781 -6.1491833 -5.2281976 -3.77006 -3.2072167 -7.041224 -4.7506857 -4.0666413 -5.6922355 -6.499483 -7.16394
doc_109 -4.5943513 -1.4285476 -2.8426297 -5.0299997 -3.7924485 -3.728807 -4.293687 -3.389066 -6.681564 -5.2139 -4.476146 -3.941646 -3.23738 1.9379437 -3.8203838 -3.7219765 -2.1690755 -3.726777 -3.1162019 -4.1077104
doc_110 -5.1878138 -5.71549 -3.6332076 7.537499 -6.0084567 -5.1670766 -4.516392 -3.3511274 -1.9471567 3.2142003 -6.257339 -3.453171 -2.5895696 -2.166059 -5.1612544 -3.018907 -3.2514358 -3.9290094 -4.8886757 -4.033748
doc_111 -5.0410395 -5.580716 -2.556516 -3.6850305 0.84112555 6.3805246 -1.4287226 -7.493931 1.8529364 -4.2736816 -0.41477126 -3.6478457 -6.510855 -5.7342043 0.065346956 -3.5402958 -1.4617513 -2.2053838 -5.916554 2.7482722
doc_112 -5.037193 -5.9795423 -2.8686368 -3.3726077 -0.0013282821 0.0061947107 -2.8048692 -6.415826 -0.3776196 -2.4468825 -1.0614021 -3.9742866 -5.191047 -6.4456663 -1.049713 -3.052455 -1.8909701 -1.2039346 -5.7438188 4.656756
doc_113 -2.0308356 -3.9437313 12.546268 -4.630405 -3.0012002 -2.141614 -2.327566 -2.4340408 -4.4331203 -4.1039114 -3.8898308 -3.1063488 -3.666246 -4.9076953 -0.9552273 -1.9500563 -3.092169 -3.6190565 -4.7508593 -2.4963348
doc_114 -3.462675 -4.5610394 -2.8731232 -4.2432675 -4.574743 -7.206669 2.1525993 -4.4319334 -2.0842488 -4.7795625 -5.9370217 11.747356 -4.681338 -4.180445 -5.268317 -3.569343 -3.7369757 -3.1939318 -5.5514455 -5.7576056
doc_115 -2.6567416 -3.9730227 11.26896 -5.156032 -3.6861012 -2.842917 -3.3138843 -3.0242682 -6.7257447 -4.470471 -6.5778723 -4.979169 -3.6687057 -3.5527775 -2.7285225 -4.753358 -2.7080884 -3.9707286 -5.2678432 -4.543477
doc_116 -4.744948 -6.3796496 -4.623498 -5.071661 -3.6045845 -3.2463284 5.1801825 -5.2588 3.6721075 -5.2281237 -3.7720997 -0.75996274 -7.220946 -7.1179767 0.100573175 -2.7330904 -3.575282 -4.999355 -8.537657 -2.2407212
doc_117 -2.6858242 -5.8681417 -2.0321822 -3.1088393 -2.4308264 -2.3345666 0.5557244 -2.9969265 1.8157227 -2.4327943 -2.3455894 -3.2871635 -3.7779083 -5.7053165 10.435691 -0.5976123 -2.0237913 -3.5351036 -6.2033706 -1.317856
doc_118 -9.487811 -7.14475 -1.0494112 -5.851224 0.7338696 -0.7794745 -6.5661173 -6.60508 0.42049563 -3.287337 14.028479 -5.0961742 -5.0526457 -7.3114285 -0.09331858 -2.9716842 -3.4088244 0.6704538 -9.169433 -3.4010694
doc_119 -3.801027 -5.9560213 -2.8948982 -1.9801666 -2.4356716 -0.24530925 -0.09276605 -5.4561787 7.3455806 -2.3235352 -1.5547543 -2.1189492 -6.174084 -6.461446 5.1193686 -2.1376228 -3.4804618 -3.6588304 -6.9812837 1.7746733
doc_120 -8.732525 -6.8569746 -3.141505 -5.478086 3.134584 18.970905 -4.924288 -10.972371 4.8317966 -4.8179903 3.1894236 -6.786078 -9.713993 -9.18632 1.7796655 -7.0760026 -4.366384 -0.47490004 -9.4946 5.1871862
doc_121 -4.6308804 -5.5453806 -3.1976771 -4.8817863 -2.695504 -0.14263014 -1.2445182 -4.9601417 -0.70848197 -4.186971 -1.9267118 -1.9128412 -4.5459323 -4.8144975 5.3465405 -2.1900926 -1.4395679 -4.0350237 -6.191589 -1.7670784
doc_122 -3.9556143 -4.6788564 -3.3653376 11.904326 -6.3402734 -4.5458694 -3.845588 -2.381459 -3.607573 -0.005834877 -4.6117983 -5.2609134 -3.018828 -2.7324762 -3.7468247 -2.7745686 -3.3217978 -2.713881 -4.251487 -1.3064626
doc_123 -4.5078735 -4.4920473 -2.0714455 -4.477809 2.7536917 6.1152096 -2.3123884 -6.0053678 -0.5685109 -2.0096147 0.55463123 -4.1647334 -5.619787 -5.6770363 -0.19044103 -4.473335 -2.5606275 -2.211944 -5.227221 -0.34622386
doc_124 -7.1175056 -7.9437423 -3.713342 -4.4257903 -0.19677609 3.5427926 -3.0925176 -8.366225 0.6769378 -4.6669836 4.991646 -4.381343 -5.6169677 -7.755453 1.6063715 -1.7032126 -3.6846793 -1.144312 -8.324017 11.932067
doc_125 -4.1554475 -3.7579038 -4.638414 -4.2874303 -4.962565 -5.32117 0.4059565 -4.8442397 -1.511361 -3.0956678 -5.899701 10.410966 -4.8173985 -4.9060836 -5.2728496 -4.092384 -2.9858332 -4.184541 -6.0473576 -5.1650815
doc_126 -22.01424 -24.37578 -10.112924 -16.041735 -3.070707 -3.2930279 -13.847915 -27.894928 -2.1903431 -17.2913 -7.921992 -15.715091 -22.80736 -20.155891 -5.167496 -12.602099 4.1552653 -2.0576642 -28.846073 -4.648879
doc_127 -4.222263 -0.3749195 -3.8164737 -6.8328786 -8.224589 -8.642524 -6.84903 -2.8223329 -11.2600355 -8.017972 -9.250361 -6.8162155 -3.66208 0.0407683 -7.020521 -3.6740673 3.660689 -6.6766872 -1.53306 -9.173776
doc_128 -0.27167103 -0.31090787 -2.1865616 -2.0540302 -6.35687 -5.776462 -2.40569 2.3113976 -4.604628 -2.199976 -5.1115484 -3.712115 -0.9575722 -0.87781495 -3.2261684 -2.3945668 -1.056221 -5.324805 -1.6091173 -4.8727274
doc_129 -1.817209 -2.9267979 -2.9355211 0.13466842 -4.760234 -5.350083 -3.7446053 -1.9446685 -3.156911 4.082149 -4.1757145 -2.8755376 -1.383793 -2.3076136 -4.655985 -1.852666 -2.6911504 -4.6293216 -2.7939873 -4.8970776
doc_130 -4.4022627 -5.5220566 -3.6062043 -2.8284388 -4.8962255 -2.2590284 -1.8293267 -2.4935513 -0.48447356 -3.8750522 0.79206264 -4.3670115 -5.774073 -4.311455 13.727455 -0.8029808 -3.3317752 -0.7835043 -7.1393037 -0.53921527
doc_131 -4.3504477 -5.903188 -2.570785 -4.1652293 -1.043707 -2.3134599 -1.337645 -4.586091 -2.4909155 -4.634293 -2.8880723 -3.0901341 -4.473235 -2.3397892 8.189087 -2.537745 -0.36117744 -2.4658976 -6.4832873 -2.6205025
doc_132 -8.423941 -8.344536 -3.1668391 -4.5316844 0.48716712 2.558837 -4.736558 -9.045235 -0.7857784 -6.1078434 2.0049272 -4.1636124 -5.502223 -7.022404 0.7093893 -3.604299 -2.9199867 0.22577299 -8.60853 10.384331
doc_133 -5.5472937 -7.453577 -1.3860457 -3.5866585 9.736597 0.12771729 -4.240175 -8.243279 -1.0448371 -5.8445973 0.24603748 -4.525666 -5.4026437 -5.2774405 2.8123128 -4.213081 -1.3945932 -1.6328177 -8.518985 1.1049814
doc_134 10.916389 -0.8684951 -4.2017283 -4.464064 -5.204673 -6.3134093 0.25714666 0.77389514 -2.2726564 -3.7321959 -8.051651 -3.4048784 -2.8490877 -3.68536 -2.011259 -1.8047568 -1.1969361 -8.330376 -2.8013399 -6.707338
doc_135 -6.8690166 -6.4779363 -5.354651 -4.720842 -6.8553224 -3.4695532 0.036110844 -7.242564 4.961879 -4.0997176 -5.4119205 -3.5205536 -8.580243 -7.19934 -1.9649653 -5.179059 -3.9666035 -6.349255 -9.380855 -4.798676
doc_136 -7.616108 -7.570617 -4.911486 2.765534 -9.595982 -8.995661 -6.3835254 -6.253822 -5.5680976 20.111076 -7.0085588 -5.471292 -3.1336775 -3.9529817 -10.355527 -6.391026 -4.077205 -4.8850217 -7.8445034 -5.357348
doc_137 -13.730623 -11.942558 8.058031 -7.64846 1.2861176 -6.193825 -7.267972 -14.005796 -9.277717 -7.991396 -2.90965 -9.005428 -8.529342 -6.9453363 -5.6103578 -9.365834 -1.6816237 14.400207 -11.990376 -4.780775
doc_138 -4.2831354 -4.4167247 -2.9688346 0.45383352 -5.3298664 -3.4344926 -3.205879 -3.6755295 -1.9099396 7.102591 -5.1591344 -3.681883 -3.1131403 -3.164779 -3.1642616 -3.819594 -3.0920615 -3.9736352 -5.724098 -4.3852143
doc_139 -2.459938 -5.499857 -5.0881686 -2.833458 -3.4500964 -2.9317544 2.4823408 -4.684323 6.342897 -2.2668042 -3.6017904 -0.25584987 -5.805735 -6.7043757 -2.6106656 -2.2329345 -4.754179 -5.3864994 -7.1862726 -3.5111902
doc_140 -5.77491 -5.6287675 -3.3316386 -4.3972645 1.225885 0.5906938 -4.1287513 -6.43808 -0.5360047 -4.214805 9.680298 -4.3753824 -4.9694977 -6.448872 -0.93515545 -2.906547 -3.3566298 0.6990928 -6.2896695 -1.8542739
doc_141 1.6272165 -1.3306167 5.9343057 -4.1495533 -3.2587094 -4.575999 -3.0316708 -2.037412 -5.4086943 -4.2350225 -6.2878847 -3.2800314 -2.4941766 -1.5403364 -4.374931 -2.6370327 -3.3169248 -3.6532938 -2.953077 -4.809371
doc_142 -12.703375 -11.615638 -4.2572207 -12.138051 6.1487403 9.850101 -7.1616015 -14.921151 -1.2091358 -9.864047 6.4210033 -8.365037 -12.368596 -13.205492 -2.6729383 -9.054577 -7.4616885 -1.0914817 -14.424248 1.3733623
doc_143 -4.3020415 -5.4471736 -1.6498001 -1.3636229 -0.3676475 0.6666067 -1.6375651 -3.9279675 0.8860872 -2.5422146 -1.0408494 -3.2691054 -2.9954298 -3.067521 5.432325 -2.0834022 -1.3640938 -1.4849806 -5.5263915 0.7864302
doc_144 -4.8246546 -7.4592686 -5.175635 1.6118914 -7.745049 -7.420814 -6.1178117 -3.8131366 -2.465883 16.4382 -7.204789 -4.225778 -2.9398415 -4.7647038 -7.492253 -3.3885765 -3.3290222 -5.6563215 -8.527782 -7.640421
doc_145 -4.9677444 -8.022239 -4.8105116 4.5399785 -8.007115 -5.5393105 -5.0025597 -5.467521 -1.7944006 12.092404 -7.7451115 -3.9557931 -3.1429577 -5.058007 -6.2151937 -4.429424 -2.873086 -6.1762085 -6.940811 -3.2782593
doc_146 -7.8217373 -5.9992905 -1.3176215 -4.0558314 0.7330394 -1.6912572 -3.3662326 -9.885916 -6.711281 -5.2030125 -1.8656005 -4.633356 -5.4657054 -2.0703268 -4.8927116 -5.5577655 -2.4027162 9.355967 -7.7909727 -1.8171085
doc_147 -1.3441488 1.114121 -3.1742132 -4.8407526 -4.8725123 -3.4952483 5.4235454 -1.7101668 -4.917302 -4.421255 -4.211941 -1.3430303 -2.7950778 -0.006201104 -4.1315165 -5.529172 -3.589312 -3.554944 0.22467634 -4.1948104
doc_148 -10.780402 -9.839809 -3.0999777 -5.5760694 5.1328535 19.816582 -3.0309303 -12.92654 3.3281715 -5.65412 2.198628 -7.4642506 -10.361373 -9.585417 1.5119545 -6.9830446 -4.4633827 -0.06415419 -10.011975 8.022025
doc_149 -3.3460689 -3.8285487 -3.6265233 -5.2950363 -5.0478992 -6.3783493 0.6282365 -5.4623785 -3.5532 -3.6764336 -5.97925 8.179885 -4.227205 -3.6217937 -5.1308603 -3.933347 -4.512784 -3.8879845 -4.6896353 -6.239328
doc_150 -3.557556 -5.088078 -3.8153079 6.843175 -3.900126 -4.372058 -2.6546395 -2.5805416 0.2832716 0.88564384 -3.9655166 -2.1299024 -3.3442266 -3.2215223 -2.9354477 -1.547764 -1.3653554 -2.9839125 -4.9053845 -1.3129482
doc_151 -4.023656 -3.8429554 -2.5554554 -5.587039 -4.4172163 -5.8545 -5.914103 -4.6116157 -7.209629 -5.824139 -7.8855486 -5.2749314 -4.1456847 -3.1121776 -5.186782 -2.5248303 9.347359 -4.9131784 -4.7026596 -7.9059367
doc_152 -1.4359493 -1.4617989 -3.767732 -5.3461413 -6.979946 -10.295205 -6.450524 -1.4771479 -8.7217 -3.067312 -5.6961365 -4.6203284 11.273643 -2.058253 -7.0650926 -3.6580603 -3.132664 -5.064369 -2.9544275 -6.3004646
doc_153 -3.4138074 -4.254929 -5.1549945 -0.46267736 -2.0982456 -0.40293133 -0.5090655 -5.9860687 17.097012 -0.82590044 -0.17316437 0.3535207 -6.036701 -7.878713 -2.793223 -2.2083814 -1.2584481 -3.610692 -7.850218 1.0264481
doc_154 -4.2557373 -5.2592072 -3.419621 -2.9830384 -3.4427416 -4.2233915 -4.842467 -2.9368806 -4.432248 -3.9326446 1.6882257 -4.039002 -3.6408584 -3.8178844 -1.9626129 9.749128 -0.36196584 -3.8230011 -4.005203 -3.0538704
doc_155 7.613887 3.6440623 -3.837921 -7.217712 -7.223859 -8.471812 -1.5939001 1.0195348 -9.976551 -5.8793955 -11.557386 -4.3360004 -1.4403013 -0.25152752 -9.049796 -4.344482 -3.9651585 -9.137492 0.9795691 -9.699241
doc_156 -3.1757717 5.930884 -3.8750687 -4.013724 -4.718684 -2.7652476 -3.8608496 -1.749033 -4.943061 -3.9020488 -4.358034 -3.9108887 -2.4889503 -1.0823909 -4.2300024 -4.759194 -1.9988999 -4.051236 -0.60652345 -3.899155
doc_157 -6.541158 -8.39367 -3.3069034 -1.2451264 -6.387231 -3.403224 -5.3274775 -4.008394 -5.3111463 10.342556 -5.517682 -5.8009486 -3.3888063 -3.6369224 -4.0216246 -1.3061955 -3.3473659 -4.7878976 -3.3866162 -3.5887775
doc_158 -5.4428005 -4.060293 -4.167304 -4.313778 1.2086539 7.9365125 -1.8323799 -6.598511 0.16847001 -5.1120367 0.20818435 -4.4564724 -3.61894 -5.359699 -0.7918585 -5.4771028 -4.2756405 -0.8038936 -5.65894 2.2155578
doc_159 -2.2511997 -1.539177 -3.4276936 -2.353033 -2.8295815 -1.9631515 0.6040146 -2.5175784 0.41947675 -1.6271325 -2.305443 2.7295969 -1.9825724 -2.264099 -2.415386 -2.625882 -2.3560972 -1.7730411 -2.1345284 -1.1852397
doc_160 -4.345709 -3.521065 -2.9917614 -6.311356 -5.396107 -6.811093 -7.1297965 -4.56617 -9.468294 -5.3773575 -7.2850485 -6.99972 -2.576446 -0.5507764 -5.860885 -2.8851235 7.4429913 -4.8854136 -3.1910088 -8.342647
doc_161 -0.86213434 3.268117 -0.6655973 -3.557148 -4.675082 -4.493905 -3.1421883 0.7634247 -7.908295 -3.148123 -5.129456 -2.7994053 0.9429184 5.8436594 -5.185029 -2.8704913 -1.6892078 -2.1068807 3.505034 -5.551086
doc_162 -3.5093188 -5.8332267 -7.0304546 -6.397301 -5.9183826 -5.158885 14.31723 -6.8048487 0.11464545 -7.2324576 -7.0898395 1.6679137 -8.148102 -7.302901 -1.9924945 -6.004072 -6.1727805 -5.3853064 -6.9857454 -3.426672
doc_163 -1.5138246 3.743322 -1.5837946 -5.5284195 -6.4931283 -6.2787085 -4.7246737 -0.4955811 -9.691482 -4.785713 -6.401668 -5.1697454 0.99347454 1.5484575 -7.9630995 -5.4594193 -3.7341576 -4.2542734 1.0280695 -7.7502885
doc_164 -2.3630135 -2.4176733 -2.9256952 -2.6523914 -3.0878425 -4.0838056 -3.0145807 -2.837644 -4.462728 -2.8225517 -4.36602 -2.120316 -2.1403728 -1.0351652 -3.0370455 -1.5359532 5.0823164 -3.159882 -3.0452735 -3.463946
doc_165 -2.3207326 -3.3041651 -2.1290572 -4.5193453 3.7556913 -1.4485729 -0.98043317 -3.3644361 -1.54887 -3.3499033 -1.7946115 -2.564195 -3.1303682 -3.24242 -2.817433 -2.8893998 -1.9255201 -1.6509197 -4.8055143 -3.6495254
doc_166 -0.7783747 3.9168878 -4.090278 -4.4076095 -6.2792306 -6.3017774 -2.993626 -0.6836776 -8.660861 -4.88214 -6.8473945 -3.162452 -0.79386497 2.0861561 -7.47032 -4.1668124 -4.197415 -5.8402047 6.706173 -5.444408
doc_167 -2.546918 4.9046774 -3.4458854 -7.337995 -10.058621 -9.659585 -5.5786276 -1.4161813 -14.854501 -7.0908475 -11.021831 -6.38968 -0.49495244 8.456345 -10.27995 -5.7075357 -2.7887492 -5.969385 3.3266704 -10.84063
doc_168 -3.2987638 -4.9864683 -5.46541 -6.022565 -4.764759 -5.9152217 10.905785 -3.8252745 -0.85948426 -4.7413907 -4.936001 2.7839415 -5.6425943 -5.0719995 -1.3459303 -4.690556 -4.151939 -3.5813818 -7.015492 -4.247645
doc_169 -1.1546836 7.3301253 -2.7253337 -4.760752 -6.0419464 -4.9473643 -3.8454683 -0.34945408 -8.747659 -4.9181333 -6.309415 -3.7348335 -0.85592896 2.4778116 -7.351716 -4.3197484 -2.121473 -4.575921 2.3635793 -7.0372424
doc_170 -3.1813097 -5.0004287 -3.845335 -4.1492047 -2.542198 -5.0955563 2.0838711 -5.0444703 -0.75406843 -3.3596125 -5.6419883 6.245676 -4.9631996 -3.8794765 -1.8555776 -1.663852 -2.4159884 -4.205145 -5.382517 -3.0045712
doc_171 -1.1612017 -3.0975115 8.107611 -5.6231136 -4.0782204 -3.3748207 -1.9882901 -2.0860243 -5.344887 -4.83526 -5.4371176 -4.039189 -4.758654 -3.7149513 -2.8421395 -3.608009 -2.966717 -5.093352 -4.9310217 -3.5542812
doc_172 -5.9359016 -5.4317484 -6.135095 -7.6861706 -7.651516 -10.636636 -8.461088 -7.063568 -11.092488 -6.4820137 -9.633231 -7.185423 -5.366052 -3.9327466 -6.410514 -2.7882543 10.689656 -8.181795 -5.674898 -11.281606
doc_173 -2.3593636 -3.54367 -4.056364 -4.5764465 -3.8085449 -4.9867816 -3.1059198 -4.493552 -6.2138343 -3.8631887 -7.010481 -3.558059 -3.4911394 -2.0173702 -4.586228 -3.2850823 7.8531446 -4.4470572 -3.1072097 -5.53128
doc_174 -1.9973853 -3.1140573 -2.918891 -2.008848 -0.5668139 -1.3604697 2.3977585 -3.809862 0.86826664 -2.9916587 -1.6836733 0.19619139 -3.7917495 -2.9640863 0.88041526 -2.0074112 -1.1667289 -1.1342607 -3.521993 -0.68212986
doc_175 -2.0183282 12.806293 -3.4918156 -7.8531656 -10.026032 -8.471763 -6.1093698 -0.20414418 -11.211557 -9.244725 -9.300497 -5.6576505 -2.247676 0.6343921 -11.087465 -8.865061 -4.5678315 -8.464514 2.0822694 -11.309123
doc_176 -3.2856424 -3.3664255 -3.5449152 -2.795329 -3.8091028 -4.8835196 -2.326576 -1.6791041 -5.4819064 -3.9023166 -5.132491 -2.7309895 -3.625457 -1.9685153 -3.543852 -2.555457 4.3050776 -1.9956353 -3.3185377 -4.140702
doc_177 -5.422148 -4.068059 5.738891 -3.6201138 -3.2471066 -3.3274083 -1.8756148 -4.218291 -3.1886477 -1.6681781 -3.8489463 -3.2974882 -4.303876 -2.6492383 -2.7343812 -4.8885064 -2.337622 0.39324912 -5.4330482 -3.2864318
doc_178 -2.991375 -4.1776576 -3.1526604 -0.7075907 -1.9814863 -2.6735098 -3.0276945 -1.7034009 -4.7944455 7.664113 -1.7278421 -3.2133625 -1.192453 -3.2160723 -5.049518 -3.5791876 -2.599872 -2.6963522 -3.9622214 -4.391073
doc_179 -5.720457 -6.0348263 -2.6434636 -4.992112 2.7908082 7.4285364 -3.195682 -8.156042 -0.75437194 -3.752374 -1.6421475 -2.0856392 -6.707916 -6.5789127 -1.2672575 -4.465935 -2.5184827 -1.2674757 -7.3343945 1.1752245
doc_180 -5.9543805 -5.206876 -2.0991569 -2.9191806 1.5639169 6.62147 -3.2089553 -6.7000713 -0.2681297 -3.7073452 0.26343083 -4.2064214 -5.702536 -4.8277855 0.7341163 -4.7946434 -1.9431466 -0.89356756 -5.4966397 2.4188206
doc_181 -3.5333793 -1.886833 -2.3953495 -2.5893354 -3.1070554 -3.9764233 -3.3335693 -2.154125 -2.7937841 -2.872428 -5.0374637 -3.5546262 -1.8938751 -1.1247253 -3.0520163 -1.0382776 5.148964 -2.6683962 -2.9469209 -4.2181935
doc_182 -2.5591938 -0.59149605 -4.126743 -3.1889737 -4.9876537 -4.617578 -3.336113 -2.1999972 -5.1247244 -2.9377985 -5.3220577 -2.5502057 -2.2623048 -1.7867346 -4.284624 -2.4171927 -3.139356 -3.5070329 4.0459666 -2.7658303
doc_183 -4.505966 -4.927756 -2.4677308 -2.6550884 -1.4887913 -0.22267605 -1.529 -5.0517035 -1.4284683 -1.7098242 -0.6645515 -3.0998557 -3.8781202 -2.349605 1.9171919 -2.7423394 -1.8144035 0.0882314 -5.525641 0.7333783
doc_184 -6.512351 -5.116841 -3.0849187 -3.524112 -1.2286036 -1.4525931 -3.596178 -6.917096 -1.479258 -4.7178874 3.5437422 -5.1347814 -4.304913 -4.8139486 -2.4956965 -3.2692246 -2.0794609 0.36431068 -6.448189 -1.763696
doc_185 -5.33312 -3.600305 1.5144359 -3.005764 0.8259265 0.5565263 -1.3407986 -4.458403 -3.5474358 -3.3757565 0.050069783 -3.574227 -3.1818187 -1.5177183 -1.0142457 -1.5502301 -1.0521308 4.065538 -4.283686 -0.24833535
doc_186 -0.43826497 4.2028923 -3.0336602 -5.424083 -8.277884 -6.7578187 -3.0176046 0.7981596 -8.659632 -4.6441674 -8.073368 -3.2725065 -1.7338637 1.9753156 -7.8650517 -5.6240687 -3.3559558 -6.330986 1.173686 -7.6693354
doc_187 -4.6213145 -4.86526 -1.243567 -0.647157 0.38898572 -3.2655494 -3.8468466 -5.2364383 -3.9658554 2.097996 -1.9459821 -2.8341005 -2.71593 -1.9470514 -3.7075489 -2.360214 -1.828329 -0.6858443 -5.9881644 -2.5880651
doc_188 -2.8647814 -4.014624 -3.3196995 -2.7146127 -2.92908 -5.285632 -1.9829553 -3.3663418 -4.3883605 -4.077081 -6.360452 -3.1714008 -3.7314467 -3.1415203 -1.7734364 -1.8726335 7.72613 -3.0157158 -4.639042 -3.6092877
doc_189 -2.7717187 7.066943 -3.292087 -6.752245 -9.509752 -8.535127 -6.4951572 -1.5982429 -15.776613 -6.412129 -11.5715685 -6.515474 0.564122 15.347938 -12.299102 -6.8467026 -3.412442 -4.3418965 4.7899685 -10.064631
doc_190 -3.1693215 4.56287 -2.5620596 -4.82312 -4.483187 -5.023143 -4.900047 -2.120129 -8.62279 -4.4243407 -6.695851 -3.772915 -1.618761 10.702461 -6.395725 -5.259364 -0.56952554 -1.9879062 0.11265172 -8.565488
doc_191 -2.589914 0.019090775 -2.5919285 -3.6405888 -5.416501 -5.1525755 -1.4215126 -2.7867503 -6.997754 -4.904131 -5.696328 -3.3511095 -2.5166821 5.7018003 -3.5656579 -4.1413455 -1.4217107 -3.0554428 -1.5626842 -6.1104817
doc_192 -4.0292144 -6.4218593 -2.4866457 -5.705426 13.843537 2.5760226 -4.099232 -8.859621 -2.237848 -5.6885242 0.38790125 -4.543981 -5.921774 -7.5644827 -2.326941 -4.969968 -2.4417734 -2.0018904 -8.195037 -1.1452354
doc_193 -3.2214723 5.422163 -4.4700847 -6.122802 -8.797124 -7.2376213 -5.7026 -2.850347 -13.653881 -6.9714565 -10.697315 -6.577242 -1.7092841 10.041005 -10.750404 -5.622835 -3.4266882 -5.2234406 3.9055603 -8.499406
doc_194 -3.6490524 -4.964226 -3.668943 -2.0064716 -2.4240525 -3.1699493 -0.88996303 -4.6856003 0.22805318 -2.5996273 -1.160673 -2.8864164 -0.6753041 -4.9838653 -0.8296674 0.23671107 -1.6892117 -3.31966 -5.5238886 4.615741
doc_195 -4.4301767 -5.228465 -3.3265247 -3.0157833 -3.0307174 -1.7238348 0.41335863 -3.8479886 1.0426306 -3.932809 -2.3416321 -2.1234126 -4.5317316 -4.4398966 11.2677765 -3.5526726 -2.501652 -0.7812934 -5.9291635 0.06504463
doc_196 -4.3690352 -6.0830455 -4.7877827 12.137234 -4.1503425 -1.3893722 -3.063373 -6.6519094 2.4847922 -0.276164 -3.8287637 -6.676236 -5.091767 -3.8228798 -1.2599571 -2.2540452 -4.2265477 -2.4391205 -8.826543 -1.2228374
doc_197 -0.24603446 -3.7176764 -4.0951595 -3.5022864 -2.431796 -4.7095 9.201996 -4.6988063 -1.2479309 -3.9889205 -5.953824 1.3349527 -4.091169 -4.0767717 -1.2435257 -3.2822304 -2.7012005 -3.565291 -4.9088373 -2.5423145
doc_198 -4.618274 -3.6781595 -4.4598145 -5.9176297 -3.6150913 -0.39738965 -1.9932666 -5.1092153 -0.6364782 -4.9095225 -3.618364 -3.0115442 -5.6637697 -5.585769 6.799792 -3.7586932 -2.820275 -4.8527403 -6.315218 -3.280176
doc_199 -2.6728094 -4.293587 -3.5098925 -3.250574 -1.2344935 -5.442149 -5.336329 -5.0086913 -7.4617343 -1.4890056 -3.06401 -4.9586434 -1.0896891 -2.2490146 -2.6500988 -1.6706598 9.003029 -2.5078287 -4.6610913 -6.0539308
doc_200 -1.2294793 -1.629399 -1.9299586 -1.8139046 -1.2215556 -1.7230726 -1.1516187 -2.4911995 -1.3931106 -1.8785372 -2.006087 -1.8735273 -2.3924952 -2.324688 -1.6542846 -1.1902556 0.89666396 -2.3583016 -2.1678383 -1.8106817
doc_201 -1.3920815 2.2310627 -2.627934 -2.6952753 -4.6818213 -5.241146 -3.839666 -0.38767552 -9.333149 -3.8517458 -5.720345 -3.429327 -0.42152205 6.9336042 -6.6006265 -3.616239 -1.7575154 -2.0103152 4.131407 -5.7826796
doc_202 -2.170036 1.2409569 -0.9560847 -1.9031026 -3.8807693 -5.373627 -2.5685654 -0.21554281 -8.445794 -3.0314758 -6.9390974 -1.4837478 -0.3247156 9.403512 -4.514672 -2.4569983 0.08415044 -1.5735985 0.0975925 -5.596086
doc_203 -1.9784875 3.2414708 -2.2970648 -4.144424 -5.1962824 -4.9315033 -3.28718 -1.6256783 -7.9020367 -3.7178228 -5.3639684 -2.2380605 -1.0703166 7.8015265 -6.593326 -2.6789038 -0.6721462 -2.3732493 2.017317 -5.9894943
doc_204 -1.3709763 1.6908089 -3.5709472 -4.526362 -6.3392096 -6.7134695 -3.8728724 -0.16420472 -8.137089 -4.4345007 -6.540705 -4.5901904 -0.17822959 -0.3870528 -7.1203933 -2.1299284 -3.2446735 -6.0596585 7.9978347 -7.1588016
doc_205 -6.3885903 -8.126323 -4.488743 -1.8057777 1.0899359 4.626807 -4.0848994 -8.647032 4.184936 -1.3646588 -0.869893 -5.404819 -4.7945304 -7.349213 1.6630061 -3.0276709 -2.1351323 2.5005355 -8.271372 17.820599
doc_206 2.7608635 -7.3955483 -9.160146 -6.070946 -14.571452 -16.558933 -5.7719917 -4.3165436 -3.9342792 -5.307777 -16.760077 -7.091213 -5.35853 -7.873681 -11.859068 -4.3290586 -7.9108143 -14.502562 -10.838874 -13.607266
doc_207 -4.6120024 -6.445251 -2.6915524 -4.062159 11.3110895 1.8079988 -2.4383178 -9.15137 -0.90387493 -4.8482213 -1.3199455 -3.8782654 -5.599578 -4.6364837 -1.3717802 -4.2983828 -1.6067201 0.16712235 -7.5534387 -1.4704126
doc_208 -1.5129286 -1.0503571 -1.3528028 -2.099443 -2.5077639 -4.620365 -2.7592444 -1.1843268 -5.2341657 -2.1300633 -4.2371607 -2.7908633 -0.7124652 1.3980379 -1.5201793 -0.48330864 7.187382 -2.9136524 -2.651193 -5.229471
doc_209 -3.3076043 -4.7570004 11.673947 -7.2768593 -5.962832 -5.256076 -2.900143 -3.3209026 -7.978613 -7.4548793 -8.05406 -5.7416897 -4.7761726 -4.4214644 -2.95039 -4.334198 -4.0768332 -6.482967 -7.022822 -5.7763233
doc_210 -5.2517014 -5.571641 -3.0590641 -4.7374525 -0.6406979 0.015135838 -4.6073623 -5.252927 -0.12742333 -4.7420197 4.101175 -3.8204832 -5.087045 -5.41546 2.5514565 0.5079387 -1.3978221 -0.6614999 -5.1226635 -0.051581457
doc_211 -5.2327585 -4.5021267 -1.9953585 -4.0622315 1.7617488 6.8673882 -2.0438154 -6.008584 -0.3894521 -3.3537557 3.561455 -3.355007 -5.2740455 -5.7453084 -0.34172678 -2.9260352 -3.2637725 -0.68109524 -4.3401113 1.7432485
doc_212 -4.951667 -4.7269197 -4.440146 -4.8447957 -5.402616 -4.1762433 -1.0778685 -6.138999 -3.172538 -4.0656476 -4.773414 5.1985598 -4.008689 -4.506978 -3.40526 -1.9418991 -3.1824632 -5.199938 -5.7970147 -5.257986
doc_213 -1.5447296 -4.1341147 -3.789044 0.6491306 -1.698138 -4.4083443 -2.620916 -3.7269692 -3.5858266 -1.3122066 -5.87946 -0.5198644 -2.8194654 -2.1590488 -2.1352494 -1.5700063 4.6933126 -2.7991617 -4.676027 -4.4993386
doc_214 0.64595795 2.0094995 -2.090981 -2.3445945 -5.826512 -5.6068444 -0.8287445 11.222627 -6.195761 -3.445082 -5.7833686 -2.5484161 -0.35759154 0.18281531 -4.0941176 -2.4107053 -2.4294891 -6.695402 1.1227888 -6.6037173
doc_215 -13.758963 -18.144133 -12.345817 5.2395825 -19.221224 -16.693972 -11.569262 -14.32431 -7.818623 33.012768 -19.294546 -7.1054106 -8.973658 -11.933048 -20.64581 -10.762983 -9.148411 -15.120614 -18.034048 -16.214516
doc_216 -1.6949644 -2.3231504 -1.3830976 -2.7648003 -2.6129086 -1.5039715 -1.7563506 -2.4288297 -1.0210357 -3.717849 -2.5857387 -3.747264 -3.152529 -3.5556273 0.74833363 -1.735684 -2.1880028 -3.0225093 -3.6334243 -1.9169496
doc_217 -7.7508316 -6.2197976 -1.470399 -5.5023656 -2.2983472 -3.752808 -3.6830125 -6.778716 -6.420273 -5.4976435 1.4275761 -3.7622433 -3.6470788 -1.8593307 -3.1080432 1.0096883 -1.5388224 8.732155 -5.8245153 -2.8995383
doc_218 -2.8146846 -2.5380714 -4.002705 -1.9612827 -1.8766278 -2.8461478 -2.5809834 -4.6968007 -0.077429116 -1.4859978 -1.9856849 3.003239 -2.8092053 -5.0912476 -4.0930963 -2.8809493 -2.4127853 -2.29059 -3.669537 -2.084571
doc_219 -1.4849703 4.93099 -3.5292754 -5.2505107 -9.269983 -8.875989 -5.3806205 -0.12088424 -13.370108 -4.7824078 -10.030008 -4.9416075 1.1998376 9.720411 -9.412991 -5.802183 -2.7512534 -4.995673 3.82397 -8.813985
doc_220 -3.050698 -4.549953 7.155701 -4.854859 -2.296742 -0.72138524 -1.2153872 -4.2526217 -1.4695194 -4.7828236 -3.9839284 -3.660375 -4.7234545 -4.5397086 -0.3737036 -3.0210226 -3.5789344 -4.0227203 -6.093059 -1.4800055
doc_221 -4.1823907 -4.9464245 9.24525 -4.690261 -4.031047 -1.9134754 -2.4313834 -4.4348316 -5.928725 -6.4711556 -5.9394197 -5.4326706 -5.6970015 -3.1001675 -1.5871942 -5.2614007 -3.5066218 -3.5954256 -6.36785 -4.1102467
doc_222 -5.4614115 -3.6610641 -0.9448272 -3.9407418 1.9161112 1.3876119 -3.0837913 -4.106878 -1.7205827 -2.90764 11.323992 -1.4120073 -2.2370846 -3.8065429 -0.8424053 -1.8409762 -2.4996815 1.3121394 -4.462995 0.23732026
doc_223 -2.9985838 -4.7058344 -4.7515244 -5.127537 13.154189 -2.577553 -3.6479902 -7.815295 -4.5291743 -6.849264 -3.9754744 -4.177136 -4.9924393 -3.7154047 -3.5329468 -4.952802 -0.37822905 -1.7205948 -8.199737 -3.8748238
doc_224 -6.489432 -6.0705123 -2.3730295 -5.07321 0.6725216 -2.1573193 -5.7405663 -6.5510736 -3.4156373 -5.0882487 10.221548 -4.9845643 -3.351416 -3.8979461 0.86737263 -2.035709 -2.870734 2.4424813 -6.8718905 -1.1416751
doc_225 -2.3723667 -3.0777571 -0.6502793 -1.3816545 -1.2072737 -3.9514894 -2.423477 -1.8108855 -1.5652213 -2.564539 -2.5695918 -1.3339033 -2.2736957 -2.3802092 -2.5068092 4.719813 -1.4375126 -3.680714 -2.776849 -3.2695994
doc_226 -2.2931564 -2.6149688 -2.9031649 -2.9601357 -1.993701 -2.404784 -2.2217307 -3.0986168 -3.4577012 -3.1778893 -3.7195387 -3.15914 -2.7085881 -0.7982025 -1.7306725 -2.2946594 3.9292428 -1.9709413 -2.2451234 -2.385958
doc_227 -2.400819 1.7293757 -2.0686386 -3.5195808 -5.0662827 -5.214713 -3.13207 -0.8749923 -6.4586625 -2.7507727 -3.8076806 -2.89956 0.23522176 3.7647002 -5.6691685 -2.7335806 -2.7043858 -2.8166182 0.014506791 -5.809395
doc_228 -3.8576903 -4.214925 -6.9721036 -0.9690147 -5.6167307 -5.543262 -0.6572184 -6.126024 -1.3972054 12.081729 -6.377293 -3.644135 -3.243044 -4.9411464 -6.5932384 -5.241022 -4.1395063 -3.6381204 -6.926985 -6.2054305
doc_229 -5.656782 -7.854737 -2.313208 -3.9953094 -2.814188 -4.3834085 -5.4145145 -6.8140817 -3.192517 -4.585015 0.37439844 -3.1702993 -5.3837504 -4.0334945 -2.156829 6.988953 -0.71324444 0.03418935 -7.1896753 -3.1570802
doc_230 -4.2268825 -6.190685 -3.2080479 9.662048 -4.8260307 -5.165294 -2.990543 -2.30934 -1.1331755 0.6738435 -6.5375485 -4.3469567 -3.7655115 -2.841442 -2.877408 -2.3571353 -2.5533326 -2.9662507 -6.403246 -4.058465
doc_231 -2.345546 -3.33526 -1.8191653 -3.2810853 -2.0324697 -2.4313989 -3.1133478 -3.0720944 -0.5384791 -3.727077 -0.91460717 -1.8506169 -2.9507012 -2.8354752 -1.4273142 3.3841164 -1.3579813 -2.9694314 -2.9673212 -2.4091425
doc_232 -2.927491 -5.4921837 -1.6910511 -5.059994 -1.6819664 -2.116318 9.387693 -5.2407804 -0.6872518 -5.0559106 -5.23316 -1.4463748 -6.5187387 -4.478946 0.41226578 -4.35839 -3.8496397 -2.6691747 -6.545001 -3.1425083
doc_233 -3.5661204 -4.8497624 -3.2468605 -1.263478 -2.223487 -3.4839032 -0.9153677 -2.7953637 -1.9501041 4.609486 -3.4264002 -2.486402 -2.5211527 -3.8044207 -2.9141505 -2.3706217 -1.7887152 -3.2689147 -5.196613 -3.6451676
doc_234 -3.6301546 -3.9808283 -3.1562243 -0.7487775 -2.2246547 -2.2965982 -1.4952344 -3.7777107 -3.164275 4.3591733 -3.5205984 -1.8081381 -2.7567344 -1.2378991 -1.977905 -1.926987 -0.38083065 -1.9691858 -4.077965 -2.6107843
doc_235 -1.4429816 -1.3411863 -1.4158156 -2.2776425 -2.6994064 -4.6539884 -2.1112018 -1.084083 -5.1486063 -2.4604435 -4.859421 -3.3351483 -1.2525455 0.8439104 -1.7514254 -1.1020269 7.188363 -3.121407 -2.588373 -4.8054066
doc_236 -1.8073252 -4.656591 -0.76835847 -1.4756123 -1.6538805 -1.0046285 1.6324103 -2.2768767 0.5152551 -2.9519317 -1.7852709 -1.7189083 -2.716291 -4.3081164 8.312257 -0.18711002 -1.3273686 -2.2608628 -4.22405 0.33985266
doc_237 -2.9689372 -3.8585086 -4.7260985 -0.44735578 -5.582896 -3.9330025 -4.1321454 1.2881657 2.9807882 6.1954393 -3.5706978 -2.0973723 -1.9888661 -4.7234426 -3.6002393 -3.3539314 -4.0257545 -5.1592855 -5.3969855 -2.9725986
doc_238 -4.887247 -5.2792773 -4.9066606 9.413585 -5.677288 -3.1044085 -3.7399142 -4.5340676 1.05405 3.3557818 -6.416664 -4.0783634 -4.1756954 -2.6944156 -4.468255 -2.3853397 -2.531409 -2.9628034 -7.875935 -4.972904
doc_239 -2.1226735 -2.611979 -4.014669 -4.7805552 -4.646036 -2.725108 4.6291413 -3.5730913 -3.0229518 -4.158063 -4.33465 -0.48904866 -4.481176 -4.35177 -2.5223172 -4.3969445 -4.297661 -4.517989 -3.502767 -2.5336285
doc_240 -8.25018 -8.062822 -1.9650937 -5.1143165 0.9157999 4.770789 -4.419905 -9.305163 -0.92587894 -6.3255424 2.6570435 -5.7087584 -6.1778812 -7.0916834 1.4684433 -4.701026 -4.4493146 1.6960874 -8.025734 11.256175
doc_241 -5.1301856 -6.1146183 -0.94003075 -4.878259 8.479615 0.7159013 -3.3445318 -7.2508764 -2.5206878 -5.1562476 1.4300541 -3.9479854 -4.7997665 -4.1913977 1.2640883 -3.634884 -0.64369786 1.2653366 -7.8216763 -0.49152172
doc_242 -6.5261006 -7.3828583 -3.2712886 -4.730767 1.6385679 3.7966065 -1.7439803 -8.515264 0.9509967 -5.7380323 0.13848723 -3.369909 -5.7680583 -7.672135 1.6552371 -3.8228538 -3.528978 -2.0535235 -7.0549297 10.057802
doc_243 -4.09396 -5.960265 -2.981219 -5.1658463 -3.929143 -0.6928983 -0.37372568 -4.571491 -0.25643012 -6.351408 -3.550205 -2.670686 -5.114206 -5.5918546 10.670161 -2.8975177 -2.5769298 -4.587859 -6.4760118 2.0066526
doc_244 -4.0224576 -3.4913926 -2.778839 -3.7636094 -3.0304112 0.70272636 -2.318074 -3.8958316 -1.1017821 -4.333208 -3.0612109 -3.9317136 -5.4761996 -5.191933 4.786286 -3.29249 -2.5429401 -3.6771657 -5.545491 -1.6371071
doc_245 -2.731134 -3.3169847 -3.7500627 -4.189218 -3.7456212 -5.3050404 2.1103337 -4.119455 0.55995595 -3.3528104 -5.5965014 13.591082 -3.9647255 -3.799534 -4.081803 -2.5351303 -3.9981704 -3.7129328 -5.0098124 -4.7234764
doc_246 -0.65932876 3.426755 -1.7666671 -2.8190727 -4.68869 -3.3171763 -2.8380618 -0.70205617 -6.4791603 -4.9350195 -6.1894455 -2.1722991 -1.9986401 0.38285834 -6.0621696 -2.192882 -3.1400132 -4.4278226 6.751991 -4.925422
doc_247 -2.1149006 -2.7195837 -3.2285852 -5.1241984 -4.7690907 -7.0546927 -4.0520506 -2.4208581 -5.537483 -2.8472393 -2.6596632 -3.7340198 5.7363873 -3.3364098 -5.5862184 -2.5196736 -2.9463918 -4.3152995 -3.1632988 -5.3481665
doc_248 -0.64054 -3.1423388 -2.2114887 -4.9497304 -5.5945754 -6.9813037 -7.96232 -1.3926797 -7.366471 -2.8767712 -4.5781264 -4.5778894 5.8472342 -1.0750505 -7.874839 -2.26604 -1.8230162 -5.658428 -3.1054728 -7.5282564
doc_249 -0.8355257 -0.16905497 5.771142 -4.761578 -7.7656865 -6.8917375 -4.7926474 -0.47441185 -8.4361925 -6.032716 -7.4005604 -5.790854 -1.7997551 -1.3064383 -6.006039 -5.1716547 -3.5996978 -6.791921 -2.7010708 -6.6658273
doc_250 -1.2553483 -1.1016245 -2.2308311 -2.470551 -0.9698097 -1.3452058 4.4780164 -2.6327598 0.4223824 -2.8564358 -2.3908727 -0.10311784 -3.0917735 -2.3082707 -0.67389464 -3.3022327 -2.0952582 -1.3978808 -2.7171104 -0.6482559
doc_251 -3.0912983 -3.963475 -1.6811044 7.0194106 -4.221495 -4.023163 -3.83512 -1.8701006 -4.1289907 0.39904827 -4.065167 -4.4251847 -1.6949039 -1.3736656 -1.9352372 -1.5870967 -2.7773352 -3.2467618 -4.24357 -2.9566183
doc_252 -6.989558 -4.5569277 -0.42615548 -4.645326 -0.0396603 -3.8808336 -4.056327 -8.15979 -5.798387 -5.1105456 1.2676308 -4.1292367 -4.226257 -1.4291053 -4.6289015 -5.6628256 -3.310333 13.829134 -6.9274154 -2.8913627
doc_253 -6.208492 -7.1980367 -2.9145129 -4.977915 -2.76228 -1.5893084 -4.2952952 -6.652272 -2.0032725 -6.4841304 -2.412619 -4.077485 -6.2265396 -5.328506 2.150096 -1.2145461 -0.43471566 -1.5958059 -7.1635847 3.3548672
doc_254 -3.304721 -6.516319 -3.400055 -4.4304037 -5.6109595 -5.4854813 -4.133372 -4.3503356 -3.0369258 -3.9452705 -2.575282 -1.8294103 -4.059587 -4.8028045 -3.4743798 7.771536 -2.1638074 -4.689196 -7.1194644 -3.767604
doc_255 -0.690921 -1.7578516 -2.4305296 -4.699976 -5.913847 -4.1540675 2.918154 -0.9346801 -3.4656818 -2.5340252 -5.394921 -0.15938537 -3.2581604 -3.2332802 -3.1831028 -4.3842926 -3.81747 -5.1541734 -3.4725704 -5.2428885
doc_256 -6.6593404 -7.9482408 -2.934606 -3.5276926 1.018327 4.872767 -2.843353 -8.38482 10.504949 -3.6862893 0.7709152 -3.7570949 -8.94419 -9.800532 1.5202178 -2.9588146 -4.059679 -2.906102 -10.101299 4.635646
doc_257 -6.1096277 -7.270674 -3.3487365 -3.9052255 3.9922068 1.6535999 -3.8993726 -7.947688 1.3408803 -5.1225595 -0.5641105 -0.9681502 -4.748784 -6.8361897 3.529037 -2.9704323 -0.9732897 -1.3722754 -7.025742 8.105964
doc_258 -1.2873595 -0.27622196 -1.708434 -2.3805459 -3.6248534 -4.783777 -3.3907359 -0.39936662 -6.1576843 -2.1362455 -4.2308116 -2.8765101 1.8479513 0.97310615 -3.9321082 -3.1707172 -0.9564983 -3.3561797 -0.3323013 -4.3155274
doc_259 -2.2017877 4.3351483 -2.2576919 -4.9360437 -7.3328476 -8.652065 -4.8856635 -1.1009411 -13.248764 -4.619819 -9.914316 -4.06139 0.5152692 12.292855 -9.051084 -5.5186143 -0.56064564 -3.4749749 1.4785242 -10.612769
doc_260 0.36986616 -1.0582721 -1.7637303 -2.5623424 -5.9992375 -5.50861 -1.2884817 4.330552 -5.320091 -3.261618 -6.2844386 -3.7747064 -2.3950853 -2.371292 -3.9126494 -2.6422613 -3.430574 -6.747067 -2.0471282 -4.4291534
doc_261 -4.351763 -6.564791 -4.5628934 -2.9204435 0.10860741 3.6239886 -5.5090265 -5.216746 2.5893934 -4.043661 -0.17836386 -6.271516 -5.905615 -7.3499675 3.2056174 -2.6769783 -2.1210468 -3.2844722 -6.7837224 12.709215
doc_262 -2.3441637 -4.353587 -3.0786715 9.29923 -4.837132 -3.4996736 -3.708727 -2.162729 -1.5662206 1.4162191 -4.8335323 -2.8863864 -3.314449 -2.3040888 -4.582644 -2.4964836 -2.6522965 -3.411324 -3.9169734 -3.0147722
doc_263 -2.5316052 10.116577 -3.897618 -12.599017 -14.053506 -12.699577 -8.430249 -0.56161934 -20.793676 -12.392487 -15.376756 -9.124585 -1.322233 6.8662543 -14.816889 -9.347177 -4.2766423 -10.999875 6.8003316 -15.111507
doc_264 -1.2087996 -0.9753724 -3.4810631 -3.130418 -4.310867 -4.8446875 -3.3398545 -2.1944644 -6.712573 -4.1605306 -6.6528935 -3.6201336 -2.3140254 -0.28338367 -4.2477045 -2.3137958 5.3538733 -4.6319356 -1.8848985 -5.4367228
doc_265 -2.6361015 -3.4602215 -3.7953062 -1.2165363 -1.2379572 -3.0160613 2.3627796 -4.3103604 1.509738 -2.43568 -2.5288055 4.95405 -3.9818566 -3.5126452 -1.7343935 -2.3193252 -2.13002 -3.2452996 -4.798566 -3.0427644
doc_266 -1.1986125 -4.674316 -3.1404135 8.126023 -4.949543 -4.5882006 -3.855929 -3.051293 -1.5240946 0.7163151 -5.019499 -3.4800155 -2.127111 -0.99406195 -3.590628 -2.743839 -2.1192203 -2.6588874 -4.1014986 -4.159736
doc_267 -4.350481 -5.541909 -4.6903105 6.51227 -5.665536 -7.0703526 -6.0782375 -5.0954404 -5.145983 -1.3354456 -7.7466717 -5.4596796 -4.4597898 -3.0546029 -6.4205627 -3.279778 -3.8607752 -5.4877057 -4.6053057 -5.588759
doc_268 -0.7554717 -0.8808163 -4.3879437 -5.310201 -5.9861984 -6.476606 7.7561135 -1.7884986 -4.680984 -5.5024595 -5.9425297 -1.5919281 -3.3149757 -2.0943394 -4.951867 -6.4633465 -5.539994 -6.1803355 -2.3076024 -6.1333933
doc_269 -9.065366 -8.055456 -2.1627266 -5.0580254 1.3742653 -1.7235181 -5.0927906 -10.14754 -7.709396 -5.0933995 0.5989944 -5.7386894 -5.044783 -2.953372 -3.690034 -6.385132 -2.549357 13.459653 -8.634888 -1.3046608
doc_270 -3.2149503 -1.6220051 -4.5810614 -3.3123345 -3.0498269 -4.4098744 0.49518418 -3.961126 -1.4003567 -3.9441967 -3.9974158 8.050583 -4.5666423 -4.062623 -4.0707364 -2.1637228 -3.4213157 -3.1840155 -4.403342 -4.220033
doc_271 0.073783554 1.371983 -2.2267256 -4.0011525 -6.5194173 -6.842928 -1.2186784 7.2598033 -6.99241 -4.6687913 -6.389327 -4.033061 -1.1592693 0.37478742 -4.657835 -3.1133142 -2.5588381 -5.016555 -0.7301446 -6.6681485
doc_272 0.7432122 1.4396936 -1.7341604 -2.8515322 -2.633211 -2.7068553 -1.461876 -0.30805317 -5.435873 -3.6166406 -5.190092 -1.7987448 -1.8233691 -0.75078315 -4.1159053 -2.6561275 -2.4013572 -3.7511747 7.4729033 -3.3600137
doc_273 0.8170046 -1.6928163 7.0937705 -3.2947726 -3.5902405 -4.076708 -3.0841317 -2.7061293 -4.756456 -3.5439363 -5.940798 -2.7171082 -2.8004966 -2.3458104 -3.454116 -1.0550445 -1.392306 -3.5405035 -3.3563602 -4.422905
doc_274 -1.6183275 11.483744 -3.3631606 -7.0978036 -6.517714 -4.541177 -3.6779065 -0.837878 -7.6596007 -5.78611 -6.1530347 -4.573362 -1.3925568 1.3723292 -7.512234 -6.860208 -4.5549335 -5.629097 4.226057 -5.579843
doc_275 -1.4057548 -1.9488138 -1.5504771 -2.751415 -0.9850571 -1.952822 -2.3381567 -2.3226328 -3.4470277 -2.2497313 -2.7300615 -2.617712 -2.026925 -0.83475864 -1.4294404 -1.2167001 3.4324255 -1.2944199 -0.26033717 -2.2611737
doc_276 -0.5889855 -0.41434062 -2.7181392 -4.715426 -5.558878 -7.533261 -5.1065927 -1.3275292 -7.0192685 -2.195753 -4.6104097 -3.4285076 8.90073 -1.7279888 -5.8239303 -3.7319188 -3.4458847 -4.659362 -1.740714 -6.0003266
doc_277 -4.2410927 -5.2378297 -1.8610669 -1.7414994 -3.1195273 -1.7233955 -1.7170769 -3.1619544 -1.6255072 -3.6229746 -0.2478995 -3.2156987 -3.6246989 -3.3092191 9.232188 2.0071633 -1.3098233 -2.0812368 -5.417585 -0.5868014
doc_278 -3.2873151 -3.4891145 -0.52503204 -1.9413506 1.1074262 -0.61999154 -0.8356745 -4.6492467 -2.4084454 -2.2593343 -1.005938 -1.529568 -3.0563607 -1.4746361 -1.1888494 -3.3759494 -2.649805 4.686241 -3.9930103 -2.287153
doc_279 0.7563568 1.7649093 1.259356 -6.684941 -8.306336 -9.685383 -5.2953577 10.220783 -9.471034 -5.486113 -7.544785 -5.734937 -0.610605 -0.77062553 -5.142925 -3.7423456 -4.0396805 -7.8989325 -0.704188 -9.775865
doc_280 -1.2296902 -2.7473102 -1.8457788 -1.94512 -4.265943 -4.6724343 -3.2486455 -1.0013742 -4.7620134 -2.3831725 -2.7196221 -1.1656219 -0.72519135 -1.0563705 -2.694263 8.628602 0.3032825 -2.9365065 -1.3252436 -3.6163847
doc_281 -1.9831202 -3.290242 -3.3378468 -3.925081 -2.9415402 -3.8117802 6.513732 -3.0035076 2.2342045 -2.5692294 -2.2174788 1.7549987 -4.289211 -4.165406 0.1299259 -2.1403036 -1.8602747 -2.4471135 -5.361376 -3.4211934
doc_282 -1.4910717 2.829813 -3.2048075 -3.8041835 -5.5778832 -4.106877 -3.379779 -1.5095669 -6.7250185 -4.104709 -6.3252378 -2.8580844 -1.4825636 -0.25710905 -5.918225 -3.6124623 -3.3076046 -4.8695397 7.8737903 -5.1993203
doc_283 7.3927207 -0.9023158 -1.4419332 -3.1938822 -4.818552 -5.085811 -1.3143514 0.10262583 -3.417302 -3.132353 -5.660579 -2.3901122 -1.4858146 -2.4185967 -3.8927712 -2.8883495 -2.9962115 -6.2292657 -1.1960953 -6.011141
doc_284 -4.352027 -7.0295806 -4.774335 -6.140197 -3.0489733 -4.058595 0.25217143 -6.1978226 -2.0556905 -4.833236 -3.8526614 6.04408 -5.8461328 -5.7209306 -1.8648381 -3.2427464 -2.3970027 -4.0597258 -6.948495 -2.217728
doc_285 -0.8422464 2.0447302 -0.47841543 -2.3289697 -3.004255 -1.9417961 -2.0086315 -0.3315363 -2.5582354 -2.8870785 -2.9578102 -2.558577 -0.7116027 1.6014031 -2.6980035 -2.4210072 -1.8576025 -2.9147913 0.8845211 -2.7708073
doc_286 -1.1130793 0.5801371 -2.5024757 -2.7256877 -2.9946811 -1.7366173 6.270935 -1.7692598 -2.821251 -2.993336 -2.9849691 -0.6893533 -2.6920977 0.06761886 -2.1824286 -4.4348116 -3.5948992 -1.6530006 -0.0011353228 -1.8021259
doc_287 0.23653351 1.165682 -3.9578903 -9.154771 -9.12274 -12.681478 -8.090629 -1.0181618 -12.480834 -5.208897 -7.2316213 -5.623253 12.512954 -1.6615235 -9.850572 -5.0049086 -4.4916935 -7.8599234 -0.5666884 -11.204524
doc_288 -1.0982822 -1.5384189 -1.9633985 -1.8208083 -2.5159764 -3.42056 0.27409658 -1.6507851 -0.66092545 -1.2628622 -2.4454398 3.0905256 -1.2913048 -1.5751127 -2.3515508 -1.0164492 -1.738818 -2.4570255 -2.3624294 -2.4305463
doc_289 -2.1791131 2.9292076 -1.7909956 -4.2232103 -6.755016 -6.7560873 -5.871411 -1.1829352 -11.336605 -4.4991026 -7.5915527 -4.5501447 -0.51918834 6.8248754 -7.2380548 -2.5807831 -1.0971227 -3.963643 3.8108582 -7.4516892
doc_290 -14.215434 -13.686114 -5.4205523 -10.2090645 10.764788 18.248985 -8.330623 -17.400198 7.318035 -8.511882 9.076997 -10.738246 -13.277561 -14.761951 -0.3899697 -9.239507 -7.654947 -0.09632762 -16.362604 6.546357
doc_291 -2.9038737 -4.4100966 -2.9248123 -0.449369 -1.0985019 0.84300125 -0.59960425 -4.072686 5.3468933 -0.5961081 -1.2043703 -0.41905487 -5.205192 -4.728185 -0.36345562 -2.267706 -1.4391074 -3.0161726 -5.3664355 -0.2621225
doc_292 -0.94402117 -2.181016 -3.354453 -4.014718 -3.345104 -4.0801487 10.816934 -2.8245602 -2.6265829 -3.5682476 -5.463737 0.06528168 -3.9347618 -3.3126945 -2.3901136 -3.7555673 -3.1431549 -2.048317 -3.2652864 -3.6692564
doc_293 -3.0169733 -3.7693486 -5.07204 -6.122731 -5.173883 -7.4638944 2.0118692 -5.522663 -0.99942327 -4.9266095 -7.0371213 13.16645 -4.829388 -4.811799 -4.8541975 -3.5474458 -3.4894152 -4.6796722 -5.542857 -6.35016
doc_294 -6.066648 -4.8079 -3.0504892 -1.7993355 -1.1026307 -0.057914954 -3.1916344 -4.8158216 1.0999337 -2.8685925 5.439275 -2.3704066 -3.3737147 -3.6382556 -0.5932576 -2.6269116 -3.8624313 1.0182667 -6.244884 -0.96567595
doc_295 -9.466801 -7.7304087 -1.7393208 -5.145744 -0.90097564 -1.5444516 -3.7351167 -9.712106 -6.418603 -5.157072 3.1425428 -5.635048 -5.08415 -2.1966138 -1.7866672 -4.377292 -3.373918 14.017838 -9.749864 -3.9259593
doc_296 -4.22889 -6.997112 -4.736559 -4.9447575 -1.8221536 -5.967504 1.5869479 -7.1765895 -0.7835987 -4.8408046 -4.7193427 8.181105 -5.044058 -5.5310497 -3.8277705 -2.8995821 -1.6355394 -3.15804 -8.645744 -3.849281
doc_297 2.5090625 5.259264 -2.6630285 -6.4682055 -7.5079985 -6.734196 -4.8204036 1.787603 -12.403538 -6.2958584 -9.674082 -5.0083413 1.7516361 1.2973733 -9.029768 -5.111959 -4.8088145 -6.8338995 11.537981 -8.20218
doc_298 -8.808492 -11.698238 -7.0359983 5.1096187 -13.489708 -13.041567 -10.175781 -8.113262 -7.2899632 19.984766 -14.620882 -7.8275967 -3.608773 -5.47483 -14.477741 -6.980036 -6.13104 -11.557226 -11.399466 -11.722764
doc_299 -7.3132024 -7.120241 -2.707167 -3.482592 1.4758633 1.8479351 -4.154278 -8.741414 -2.087481 -4.5386825 0.6169473 -4.15515 -5.121974 -5.1695967 -0.6686984 -3.700283 -2.5745754 0.28907922 -6.833641 6.8540516
doc_300 -3.5799 -3.9559846 -2.3994524 -2.950174 1.9561116 -0.3839234 -2.2739472 -1.5772002 -0.79369056 -3.975291 0.12134564 -2.0283523 -4.064529 -3.5383582 -1.1062908 -3.2431364 -2.444095 -1.1718422 -4.2839775 0.3203466
doc_301 -2.4778535 2.6769667 -0.7975859 -3.1734617 -3.2189405 -3.4302537 -2.1086307 -0.43741193 -3.7819297 -3.4554107 -3.9148583 -2.6765034 -2.0882187 0.35282218 -3.9937751 -3.6469994 -2.1003964 -1.4006546 -1.2961599 -4.1760097
doc_302 5.204299 0.81073284 -5.178901 -2.0697737 -3.9497886 -2.674263 -2.3700519 -0.8830668 -0.8994324 -2.0742693 -4.498325 -2.7652285 -1.2448902 -2.7057922 -4.462365 -4.1976657 -3.0986633 -5.70679 -2.9185421 -3.7388635
doc_303 -2.5081398 4.8246183 -3.0457664 -6.3731093 -8.000538 -7.226102 -5.5290613 -1.1709585 -13.264477 -6.092617 -8.997366 -5.742562 -0.20895645 7.3184114 -9.097924 -5.735866 -2.7778852 -4.7605677 4.70852 -7.8191495
doc_304 6.283612 -0.9084833 -3.7675896 -5.5268803 -6.4380183 -7.250108 -2.7728965 -1.7617596 -5.118509 -5.259961 -8.661747 -3.1804664 -2.3702881 -2.1320903 -5.0084677 -3.3157337 -3.4473882 -8.5897455 -2.6977131 -7.2294865
doc_305 -4.2687197 -3.1289642 -2.1266675 -4.4339623 -2.0086308 0.13931298 -2.1405044 -4.1982627 1.4261304 -4.7894554 -0.5408515 -2.7218168 -4.647288 -4.427637 4.334478 -3.3577826 -1.7932293 -0.6903185 -5.216857 0.20660043
doc_306 -1.9682919 -0.98664653 -3.2291646 -2.067162 -8.478649 -7.0618157 -1.8181671 8.082474 -5.075934 -3.358593 -5.3177905 -3.158412 -2.2492876 -0.41199684 -1.8744646 -3.6465242 -3.3410745 -5.315921 -2.0457182 -5.2519813
doc_307 -3.1237836 -1.3013173 -5.676884 -5.3728776 -5.1202803 -10.895579 -4.242893 -4.748352 -7.6338954 -2.9784133 -7.8975534 -2.519879 13.537172 -0.17227624 -10.652666 -4.883571 -4.77524 -3.370158 -2.1536913 -11.795613
doc_308 0.496073 1.248627 -2.207779 -3.0475245 -7.3909583 -7.52734 -1.3335527 7.8586965 -7.080952 -3.6633825 -7.7545986 -2.7022698 -0.15086819 1.3325675 -6.1715837 -3.0573099 -3.7745187 -7.643693 -0.09030798 -7.1139183
doc_309 -4.8887453 -3.14881 -7.7053366 -7.420511 -6.6653495 -10.868506 -8.71093 -5.7901225 -10.792514 -7.716251 -14.276039 -5.9563704 -5.418331 -1.2434171 -8.988483 -5.8585496 16.788029 -8.190933 -5.1104946 -12.163008
doc_310 -6.937802 -6.6544285 -2.6468465 -2.1008365 1.7199795 7.8659945 -4.2929063 -8.125534 4.697911 -1.9152547 1.5957022 -4.305448 -6.5117264 -6.7142577 2.0723875 -5.2097216 -3.834437 -1.5608057 -6.511054 2.868929
doc_311 -4.477788 10.107629 -2.7835543 -8.951961 -11.74127 -11.660875 -8.649459 -2.3360114 -18.274147 -9.661218 -12.886005 -8.702555 -1.5093957 12.449611 -14.386405 -8.798296 -4.5263076 -6.7204485 4.066458 -13.891125
doc_312 -0.83085096 -0.40037873 -2.3723226 -3.1429343 -5.5079126 -6.8165994 -4.759948 -0.32915205 -7.425236 -1.8188949 -5.5295396 -3.3542829 6.5863976 0.6535504 -5.84548 -2.4190102 -2.2344291 -4.4184155 -0.83442426 -4.933691
doc_313 -1.5399768 -2.5623028 6.6088877 -5.2736225 -5.8052063 -4.402141 -2.645551 -1.9436309 -6.2281346 -5.279164 -8.046204 -4.070266 -3.8162363 -2.4837377 -3.7814317 -5.5415673 -5.0464935 -5.621643 -4.0805426 -5.598813
doc_314 -15.559261 -19.270727 -13.9410925 5.330334 -21.122358 -18.794897 -13.993008 -16.17075 -8.817349 35.900223 -20.59299 -8.575295 -9.335064 -13.0312605 -22.647612 -12.861877 -10.647674 -16.999414 -19.628687 -18.337402
doc_315 -0.4995374 2.8342028 -1.9678051 -2.4479957 -4.0414567 -3.273776 -2.1830597 2.3085825 -5.7068505 -2.5933654 -5.677822 -2.5651789 0.16641511 2.7241528 -4.90644 -2.7453156 -2.5643752 -3.7581742 6.110953 -4.720456
doc_316 2.6537097 0.35495508 -2.5231352 -4.610539 -8.569081 -9.003813 -3.783972 11.40703 -7.8493814 -2.3115327 -6.9439545 -3.9549527 -1.90162 -1.7349141 -6.344556 -4.424132 -2.6047766 -7.9205256 -2.7715816 -8.926333
doc_317 -0.20572922 -1.0521811 5.0755563 -3.5144703 -4.9146442 -4.259204 -3.3249454 -0.7030636 -3.6405418 -2.5622811 -5.71866 -2.6052153 -2.550442 -2.4577653 -3.0184863 -2.8463821 -3.4692593 -5.377167 -2.8633657 -4.79543
doc_318 -2.174931 3.318359 -2.7590086 -5.2219634 -7.1977463 -7.2144794 -3.9811077 -0.88719726 -8.161462 -4.1301436 -7.794768 -3.9833918 -0.14168267 4.532713 -8.231903 -3.82697 -2.6311898 -4.6882725 0.5772706 -8.140644
doc_319 -1.7936937 -1.4740515 -1.6207881 -2.000377 -4.2452874 -4.129174 -3.3971138 5.5554795 -6.245037 -3.8076897 -2.6157298 -4.761022 -2.9826586 -2.2506065 -1.9940451 -0.061746653 -1.4802119 -4.800512 -2.0450618 -5.7392044
doc_320 -5.76043 -6.5922756 -3.8638797 0.19855471 -6.799806 -5.0866466 -5.032549 -5.3008623 -1.6135248 10.4474535 -6.304697 -3.2329211 -3.6444263 -3.7615092 -4.383169 -3.3183453 -2.5654092 -2.161994 -6.139895 -2.881831
doc_321 -5.321692 -4.148115 0.04401379 -4.5680494 1.0773779 -0.26679173 -3.737534 -6.572745 -4.833973 -5.1196084 -0.2326774 -4.003569 -4.0713825 -0.837148 -2.5164974 -2.8066788 -1.8442398 6.862416 -4.4182377 0.61373895
doc_322 -0.4029221 -4.284642 -3.62023 -5.5431104 -2.9361322 -3.7852943 4.346908 -4.876529 -1.9827269 -5.754663 -5.5391297 -0.92754227 -5.1686964 -4.5251822 0.7599422 -3.4817002 -3.5736265 -4.120509 -4.9872217 -2.7010624
doc_323 -4.070282 -5.6249356 -3.3052313 -3.352716 0.09578901 0.4031093 -3.1073034 -5.86798 0.7310128 -2.6980066 -0.3120748 -2.589515 -1.0211447 -5.6066823 0.6415013 -2.6291132 -3.5457678 -1.4868542 -5.7635417 3.5174606
doc_324 -4.0416026 -5.645988 -5.6713786 -6.436688 -3.5760937 -5.679654 2.9182553 -5.859358 0.4097443 -5.526993 -4.10868 9.583456 -6.5037036 -6.2400374 -1.3340755 -2.8169088 -3.32031 -4.790311 -7.109024 -3.358766
doc_325 -2.4774718 -3.5440142 -2.3512702 -3.6815825 -3.0289254 -4.02349 -1.049789 -4.161054 -1.8497303 -3.7996335 -4.288784 6.612451 -3.249653 -2.6872249 -3.9425507 -2.2985013 -2.8723066 -1.7140387 -5.1054783 -3.977713
doc_326 -2.2274473 -1.5894815 -6.0805306 -7.6463275 -10.379872 -15.119549 -10.11506 -3.123339 -15.677153 -5.085755 -8.819072 -6.175838 16.390406 -1.0116974 -13.006191 -5.379659 -4.4678187 -7.3462257 -1.7420325 -12.001232
doc_327 -0.79014397 -2.7429585 4.464754 -5.8991294 -5.8839426 -5.4298234 -2.6343274 -1.6657035 -6.9648266 -6.2283278 -7.370725 -5.0486107 -4.688009 -3.9117472 -4.559475 -4.5512414 -3.2785082 -6.455983 -4.451459 -6.0416107
doc_328 -3.8822296 -7.612508 -3.2394195 -2.8492403 7.4573984 5.4745812 -3.2073102 -8.796962 1.690792 -4.8447604 1.4370439 -5.23312 -6.879157 -6.2758913 -0.5731482 -5.48163 -3.5977936 0.69122875 -9.236108 3.216608
doc_329 -7.2822766 -8.397416 -5.4448924 20.244663 -8.787636 -7.193228 -5.269909 -6.3070726 -3.4095356 3.7537436 -9.8683195 -7.8174176 -5.9879613 -4.191855 -6.324967 -5.287476 -4.769289 -6.0618005 -9.61895 -6.0044165
doc_330 -4.411255 -3.8285513 -4.425349 3.9823463 -4.3168836 -0.25084624 -2.116881 -3.6518488 -2.9772127 0.33404684 -3.9215314 -4.889281 -4.019336 -1.2439315 -3.0234566 -4.5499597 -3.276693 -3.381275 -4.7172585 -4.2488422
doc_331 -3.434925 -5.159115 -1.9994392 -1.972268 -1.0823182 -0.3166316 -2.1914115 -4.42934 -0.08036398 -1.7399793 -0.8722602 -2.584622 -2.7440813 -3.9033968 5.8532133 0.35665625 -1.6660987 -1.2078383 -4.8722715 1.1139586
doc_332 -2.058262 -1.9787396 -2.3170366 -1.8860883 -2.1698859 -1.660398 -1.4736853 -1.5666738 0.35310277 -1.0811112 -2.1519551 -0.9449836 -2.8646028 -1.4350367 -0.8385338 -1.7577143 2.14041 -1.413337 -3.3637958 -1.7113945
doc_333 -4.950568 -6.068146 -3.0851078 7.9598894 -5.280714 -4.536348 -3.9597895 -5.013324 -2.857152 1.6253526 -6.6903186 -4.0170193 -4.531275 -2.8793244 -4.700696 -3.5170643 -1.926871 -3.8112698 -5.2931366 -3.688928
doc_334 -0.3616558 1.9771432 -1.6885326 -4.9038115 -6.3603787 -5.8493347 -1.3089526 2.8085272 -7.662696 -4.288121 -6.795323 -2.166088 -0.07622639 0.9230043 -6.483262 -3.2633789 -2.272114 -4.4429317 0.61700517 -6.067542
doc_335 -3.0820076 -3.1367326 -2.3674517 -2.1486056 -1.4121351 -0.39432275 0.14854398 -3.4805806 0.5617041 -3.263144 0.63267696 -2.214068 -4.423539 -3.5876908 3.8897865 -1.8745847 -2.1901324 -0.35647675 -4.700515 -0.93915796
doc_336 -2.8828833 -2.5472019 -2.2589424 -2.8781884 -0.52253044 0.35590947 -3.3309054 -5.052427 6.710884 -2.0941627 -0.13250598 -0.8689701 -4.3423233 -5.5960345 -1.2322562 -3.1138904 -3.8719218 -1.6890888 -6.1471143 -1.7079722
doc_337 0.06836297 4.585849 -2.3802955 -5.972385 -6.469209 -4.4068675 -3.8584034 -0.25459528 -9.77961 -6.26151 -6.4421134 -4.72037 -0.86386794 0.3974087 -7.573468 -4.6071124 -2.9572954 -5.8608155 9.64298 -5.963754
doc_338 12.647977 3.060299 -3.7994907 -7.4152427 -7.4685974 -8.421636 -2.2015197 1.7715863 -6.7945123 -6.582 -13.849679 -6.051233 -3.1621382 -3.428643 -8.629518 -7.3382015 -4.4347486 -11.839744 -2.186783 -10.08717
doc_339 -1.0624644 5.3694468 -1.7357097 -4.3607225 -4.2807875 -3.532165 -3.1391494 -1.9283822 -6.5551357 -5.0952563 -4.3751774 -3.2796755 -2.3911552 1.0536124 -4.961021 -3.5202217 -1.8990419 -3.5601704 4.051476 -4.6058903
doc_340 -8.596846 -7.592708 -2.2776248 -5.530975 4.863998 5.2762733 -4.92754 -10.275953 -1.0659333 -3.776748 11.979032 -5.825686 -5.564956 -7.4868836 -0.6119687 -4.5068254 -4.136404 3.1866028 -10.694259 1.0587069
doc_341 -1.6818777 -4.0877953 -3.6217566 7.685713 -5.5573835 -5.5350323 -2.0672038 -2.432936 -3.0913644 -1.5199025 -7.917167 -2.699952 -4.1643577 -3.2762547 -2.3721125 -2.7647552 -2.740935 -5.6065617 -4.7404194 -5.8457294
doc_342 -3.2001648 -3.0466692 -1.8505542 -2.0098398 1.0866693 3.0866787 -1.4899586 -4.9343767 2.7705672 -3.1179247 -0.27974397 -1.3030427 -3.9918144 -4.124938 0.24825451 -2.8901157 -2.651014 -1.7960352 -5.17985 2.3288572
doc_343 0.33030772 -2.4180894 -1.8352361 -3.4992185 -5.2162747 -6.706495 -4.658264 -0.17313594 -5.5289235 -2.5401955 -3.5532784 -3.301628 3.67028 -2.3924682 -3.5951414 -1.4411156 -2.639485 -4.6497364 -3.0823472 -5.2443147
doc_344 14.384772 -0.3665162 -2.6349666 -5.1161075 -6.1220846 -8.611372 -1.5574529 2.8584118 -6.491003 -2.184387 -10.134818 -2.923724 -1.0793506 -2.6656382 -5.765637 -3.583426 -0.9682434 -9.870888 -1.6603285 -8.719318
doc_345 -2.1360373 -4.855999 -3.7161565 -3.7835767 -5.1951685 -5.0368094 -1.6188221 -3.037764 -3.5134945 -4.9709854 -4.127346 -2.1872537 -4.253687 -3.1573594 -2.4076304 7.9007187 -1.613499 -5.9149146 -3.141528 -4.5240808
doc_346 6.459334 -1.389288 -2.2654498 -4.112055 -3.602454 -5.40929 -1.2176616 -0.996042 -4.6995964 -4.497979 -5.244711 -3.38012 -1.581162 -3.0033576 -2.5273619 -1.224001 -2.3763897 -5.8651457 0.13820301 -4.732062
doc_347 -2.3063815 7.352658 -2.180656 -5.5682206 -5.210014 -3.6943862 -3.7606905 -0.62219733 -7.2315607 -6.152253 -4.5674405 -3.953064 -1.8399205 0.09445553 -5.7315636 -4.049624 -2.896665 -4.2645264 3.3586347 -5.341356
doc_348 -3.2700155 -3.3849173 -4.657038 -3.2181277 -4.339137 -5.7934513 -4.653405 -0.66170484 -5.2469506 -3.7990856 -7.32835 1.3889536 -2.9987714 -2.543007 -3.0208857 -2.6811478 6.913082 -5.7062287 -4.495582 -7.151023
doc_349 -6.4292283 -7.418222 -2.4315896 -2.6963995 1.6244277 9.914709 -1.2521443 -7.5611663 2.4973514 -4.1610775 -0.45636353 -5.357758 -7.03643 -7.1205254 3.2240422 -4.8636584 -3.5122814 -1.0759289 -7.6232324 3.8568668
doc_350 -4.177924 -4.093144 -2.3610187 -2.0850587 -5.6425195 -2.5373337 -3.5555599 -1.6343623 -0.84030706 4.491774 -4.320501 -4.538768 -4.083911 -4.569686 -2.4092114 -4.1649246 -4.0685015 -5.2739763 -5.5999765 -5.0702744
doc_351 -4.9731355 -5.524066 -3.523936 -3.178189 -2.4519758 -0.2701503 -3.1330109 -6.1209416 -1.7942741 -3.3900023 -2.351901 -4.026427 -5.060205 -4.1879187 -1.738878 -3.6586747 -3.8829937 -2.3479476 -6.19797 2.7474058
doc_352 -5.084533 -5.9322705 -4.3698654 3.2918859 -7.434242 -5.8596673 -4.673074 -2.566118 -3.4639878 8.025682 -6.049662 -3.801308 -1.2585269 -2.9493039 -6.390331 -2.0274222 -2.8123524 -6.3480716 -4.6944323 -5.617885
doc_353 -5.488258 -5.857518 -2.980577 -3.51704 -1.6881635 -0.6601181 -5.5802345 -4.630988 -0.55240804 0.3936076 8.789056 -4.136212 -3.2081227 -4.4740868 -1.0645719 -1.5327457 -3.0127292 -1.1988868 -6.14656 -0.58726275
doc_354 -4.459467 -4.3629537 -3.3802047 -2.3688762 1.2311288 6.704479 -2.4714231 -6.4257336 2.3203983 -2.9625363 0.050992597 -4.246326 -4.999518 -5.324846 1.0252206 -4.3703823 -4.2126937 -1.2765318 -6.2380095 2.7938294
doc_355 -2.856634 -1.1844307 -3.4983146 -6.087997 -7.808064 -11.680925 -6.4266677 -1.9457656 -10.481708 -2.9146898 -6.692494 -4.473502 12.131175 -0.775733 -10.504676 -4.1657057 -4.287844 -5.123004 -1.1546029 -9.631125
doc_356 -3.0242562 -8.913351 -4.8147025 -4.977929 -9.601818 -9.456914 -4.4769344 -3.2877383 -6.0706625 -5.5242486 -5.691944 -4.7400875 -5.5434184 -7.1198483 -1.7351615 14.333139 -1.4429611 -8.848569 -6.396391 -5.9677935
doc_357 -4.086376 -6.0188293 -3.077722 9.182797 -5.7722697 -5.5662785 -3.6501644 -2.9373348 -2.368106 1.1060579 -6.5847487 -3.5748637 -4.176874 -2.7183018 -4.092998 -2.6483552 -1.8950381 -5.53207 -6.1857643 -4.1588697
doc_358 -9.470941 -8.651957 -4.49918 -8.894145 8.274932 2.7629883 -5.6915836 -12.66006 -1.2156758 -4.816974 16.161617 -4.504722 -5.7801 -10.85478 -3.7754593 -5.1706333 -4.579724 2.1878154 -12.260203 -3.6802635
doc_359 -0.34014386 6.4184294 -2.957849 -7.140721 -7.561078 -5.903659 -4.6209826 0.75547546 -14.332172 -7.2821927 -8.848244 -4.936717 0.07539021 4.3190217 -9.980701 -4.5796804 -3.6031668 -5.880079 14.175015 -8.748014
doc_360 -6.5888033 -7.2205715 -3.065001 -5.8462396 11.391863 -0.28971326 -5.1773176 -10.240403 -5.0692954 -5.807654 -1.2899196 -4.912699 -4.5024257 -5.257192 -3.7331073 -6.140226 -2.040689 2.4258182 -8.763427 -1.3735826
doc_361 -3.9138699 -3.6891456 -1.2481996 -0.8483831 1.7232723 2.8858635 -1.9825464 -4.7654486 0.10529354 -1.4258428 0.053887874 -2.7024817 -2.954313 -2.7187777 -0.6945012 -2.129891 -2.0512993 -0.75917834 -3.6586585 0.0063547143
doc_362 -0.6476137 -3.2588167 -3.1092005 -3.1752481 -6.5845513 -8.132566 0.7949538 -2.1647418 -3.5947516 -3.2247179 -7.1324434 9.374652 -2.858696 -1.8890853 -6.7557726 -2.4364483 -3.983346 -4.8813634 -3.7062929 -6.346777
doc_363 -1.8591634 6.3721495 -2.241287 -4.9470005 -5.1334114 -4.8425646 -4.5340815 -1.3774564 -7.230434 -3.939385 -6.4436917 -2.953535 -1.35218 3.0912564 -6.7562623 -5.748734 -2.401644 -3.7070236 2.098457 -5.6682515
doc_364 -0.13776354 -4.231986 11.11744 -7.934049 -8.543068 -7.740254 -3.6408248 -1.470878 -9.659908 -7.130745 -10.337429 -6.404205 -4.7473264 -4.406224 -4.321445 -4.010422 -5.5936794 -9.054744 -5.649707 -9.244922
doc_365 -1.8727512 -4.1393585 7.2523165 -6.496464 -6.4029126 -6.257662 -3.7880394 -1.1964177 -6.729906 -5.2717376 -6.6730523 -4.9103127 -3.3594813 -3.6169071 -2.9614446 -1.9038951 -3.4913156 -6.8227563 -4.821945 -6.895001
doc_366 -2.9360495 -3.6353045 -2.8480918 -3.0763087 -3.015036 -2.772124 6.81718 -3.9648967 -1.8838886 -3.1471002 -2.6973715 -0.028379077 -3.7718318 -2.5838423 -1.3608954 -2.803825 -3.4678159 -1.2273932 -4.6607985 -0.84068507
doc_367 -2.6414654 -3.97109 -4.30923 -3.5710897 -5.258128 -5.1627736 12.3417635 -3.5091963 0.7675202 -2.5371022 -4.7626104 2.623205 -5.8394666 -4.243495 -1.7573371 -4.781105 -3.3844748 -1.732357 -6.580613 -2.318314
doc_368 -5.4679427 -4.4407005 -3.4989035 -3.3859057 2.6839285 8.138395 -2.9556005 -6.8403897 1.4325763 -4.017585 2.7057679 -4.5214396 -4.9783206 -5.5770426 0.07765012 -5.2990007 -4.4098845 -0.28730804 -6.2037845 3.2282412
doc_369 -7.3237786 -10.211389 -3.9438171 -4.775802 -2.4824913 1.326949 -4.846501 -11.619001 0.4922474 -6.624643 -2.0585012 -3.5830293 -7.7433677 -8.7603035 1.6833426 -1.5378059 -3.0356119 -4.1497307 -10.3859215 16.440735
doc_370 -0.8898813 0.79991055 -0.32837915 -2.3062053 -3.3977525 -2.9161763 -1.0439565 -0.49260864 -3.8657322 -2.3626606 -3.571305 -2.28074 -0.6559521 3.8419373 -2.8988578 -2.0809731 -0.06674234 -1.4375272 -0.26575455 -3.8412008
doc_371 -5.4302616 -7.222307 -4.36632 6.536799 -5.6200814 -4.7170525 -4.3720284 -2.8001149 -2.5067613 8.296423 -5.013623 -2.9385247 -3.0263178 -4.0895834 -5.5552897 -2.4832397 -2.8141484 -4.0914583 -6.115927 -4.1379156
doc_372 -2.3829634 -4.856496 -1.9540111 -0.9806958 -4.4697366 -4.05625 -1.4415746 -1.8473055 -2.8911824 -2.0767536 -1.4836907 -1.7454861 -2.737241 -3.3295546 2.425187 7.7126226 -2.1173754 -4.205377 -3.8656995 -2.0687592
doc_373 -7.366894 -6.4912844 -2.6058457 -3.9793336 2.2785952 -0.905993 -4.190904 -8.739854 -5.3769493 -4.353291 0.4335703 -4.453529 -2.7802582 -2.579383 -3.190209 -4.966945 -1.0003673 8.450949 -6.542929 0.09498798
doc_374 -1.6825647 5.0025244 -2.0337183 -4.2136703 -2.556334 -2.9221606 -4.042967 -1.1931553 -4.6537957 -4.5207076 -1.1491853 -4.070029 -1.3754894 0.058166094 -4.398565 -1.8699517 -2.3582733 -3.672389 1.6232134 -4.125731
doc_375 -3.301209 -2.0806959 -2.393708 -3.4559588 -2.0436187 -2.3637094 -3.176881 -3.435796 -4.738659 -1.732812 -2.7340631 -2.89243 -2.283376 -1.9864525 -1.8660884 -1.2016846 5.1589947 -2.5924923 -2.8150904 -2.185354
doc_376 7.4745746 -0.19660908 -1.9138479 -7.253734 -9.946497 -11.39092 -4.025885 3.048004 -11.528087 -6.3510237 -11.700563 -5.0175076 -1.7345798 -1.2208512 -8.745032 -4.693224 -2.6099925 -10.560163 -0.6860226 -11.295231
doc_377 -2.7914152 1.2570585 -3.4626343 -5.025915 -7.4337397 -7.0135508 -4.6648045 -1.8771061 -8.784573 -4.146734 -7.4051585 -3.2507334 -0.9791958 5.175882 -7.6939406 -4.6858974 -2.1605802 -4.6986194 -0.20105878 -7.18311
doc_378 -2.5730515 -7.0607476 -2.2811487 -3.9209197 -3.1908555 -3.022228 3.6652954 -3.5601542 0.10028463 -7.1176357 -3.6449783 -3.1784937 -5.3750534 -6.476067 15.005879 -0.33313066 -2.3979073 -4.3049192 -6.8421116 -0.7568625
doc_379 6.730995 -1.1881552 -2.0963337 -3.5070755 -3.8721921 -5.4292426 1.0124263 -1.0238802 -4.816949 -2.3207433 -5.4859095 -2.310849 -2.006992 -3.1285615 -3.6712725 -3.0185096 -2.462126 -4.5226974 -1.5329194 -4.571546
doc_380 -8.539202 -6.3270903 -1.7875826 -3.7460935 2.619478 -1.7272185 -5.0931673 -7.98332 -4.2348185 -3.0197277 5.7937164 -4.925513 -3.668326 -2.7312105 -2.9297879 -3.8294184 -2.867184 14.440806 -6.223675 0.67174166
doc_381 7.35543 -0.99562395 -3.2570758 -2.6950629 -5.7973375 -7.103132 -1.6170479 -0.29119572 -4.431762 -3.7555087 -6.937328 -1.3656404 -1.6902066 -3.8647838 -6.52101 -3.3818088 -2.3410149 -5.950029 -1.820895 -6.3662634
doc_382 7.5012393 -1.873715 -3.509411 -4.6915984 -5.660993 -6.043372 -0.7767199 -0.75447875 -4.9844613 -2.671013 -6.4290085 -2.2566652 -0.8357569 -2.2847767 -5.9806643 -4.123287 -2.7372205 -7.301757 -1.8983276 -5.4522276
doc_383 -6.1237416 -5.002834 -5.098501 -4.9602914 -3.4660368 -4.1608186 -0.60120225 -7.6012545 1.0413127 -3.7728076 -3.5759494 10.243882 -6.0405364 -4.3626413 -4.201119 -4.2619457 -5.0583787 -0.94942343 -6.5654573 -2.830711
doc_384 -3.5276353 -6.0347266 -3.675821 1.0490342 -5.548854 -4.6495223 -1.3241773 -3.2717686 -4.5271754 7.866205 -5.265027 -4.9131565 -2.9103887 -3.3524504 -4.806486 -3.4588118 -3.5224037 -3.7628813 -4.9381075 -3.832023
doc_385 -3.4470768 -5.1165376 -3.4823427 -3.9797778 -2.8277097 -3.9078856 3.344576 -5.221685 -2.2131164 -3.85487 -4.736406 -0.038701102 -4.6545 -3.713887 -0.47797224 -1.8229861 -1.9096211 -2.9596982 -5.746067 -2.8043795
doc_386 9.87127 -1.0080159 -2.7145088 -2.128343 -5.2979255 -6.130295 -0.6067153 -0.15104717 -2.9328203 -2.7757864 -6.0626106 -1.0812055 -2.3521967 -3.8825085 -4.6108956 -2.4713926 -2.3441067 -5.5430417 -1.3123362 -4.867217
doc_387 -6.0794353 -8.439937 -6.05084 1.2944406 -7.7241464 -5.2981057 -6.400684 -6.7519746 1.1421696 16.05542 -7.7377706 -4.9968953 -5.813785 -5.728461 -7.822391 -4.5237603 -4.8074217 -7.0658584 -10.32779 -6.702072
doc_388 -8.161811 -4.969616 -3.2195573 -4.1101694 -0.73085374 -0.06220059 -4.8604946 -8.4613 -6.8081136 -5.4159336 -0.7454716 -5.710735 -4.744354 -2.6759586 -3.101881 -6.4763026 -1.6846226 9.923815 -3.712798 -1.8358418
doc_389 -2.035674 -1.7280643 -2.721261 -3.3125043 -3.2073424 -4.9612746 -4.163156 -2.551229 -5.782276 -3.5007184 -5.43994 -3.9084802 -1.4239836 -2.015441 -3.4268854 -1.8271244 9.152044 -3.5177932 -1.7317439 -4.667907
doc_390 -1.8172709 0.6338314 -2.13424 -3.2665994 -5.159312 -5.2494226 -3.1802945 -1.0288326 -6.90904 -4.129007 -6.8951387 -3.4097598 -0.4974753 3.9577785 -5.4535813 -3.3434837 -1.3829454 -3.8771317 0.5890104 -4.6934104
doc_391 -1.1485848 0.40124455 -4.239937 -7.8001585 -9.735887 -11.863665 -7.4697695 -1.5372912 -14.574349 -5.766513 -9.357048 -6.379326 8.077055 1.0427083 -10.860361 -5.5388756 -4.4509807 -7.768144 0.38297752 -10.836231
doc_392 -5.161701 -4.33468 -1.489528 -2.8858597 3.2703884 2.5870223 -2.9429524 -6.163567 -0.24828276 -2.9239666 4.242082 -4.064435 -3.8045106 -3.3415303 0.3973933 -2.708259 -2.2174826 3.0167074 -5.4105425 0.39821255
doc_393 -3.704776 -2.4886186 -1.2296565 -3.7907267 -1.0586879 -1.4613996 -2.8794663 -3.2711418 -1.9399066 -2.908032 4.3477187 -3.380674 -2.323189 -2.838382 -0.6967723 -1.5967585 -1.9026166 0.36320433 -4.5239706 -1.42726
doc_394 -2.0972705 -1.5601237 10.912261 -6.706037 -4.993187 -4.8950725 -4.392723 -1.6749921 -7.151603 -6.401846 -7.6991777 -4.8162575 -3.4090085 -3.1473749 -5.153533 -6.588192 -3.6103525 -5.5646434 -3.90947 -5.6202364
doc_395 4.1384363 -0.41854593 -1.0990778 -4.773426 -3.9387465 -3.2707007 1.5654362 -1.0549742 -1.9213035 -3.2825437 -6.0470543 -1.5530324 -2.6177604 -3.0824218 -2.5774994 -3.7883208 -3.4452362 -5.4174194 -2.5873053 -5.2632437
doc_396 -2.717152 -1.2452862 -2.658328 -0.8265912 -1.869615 -2.651734 -2.7992668 -2.7831302 -3.2330065 -2.5845962 -4.2696505 -2.3399425 -2.265192 -1.9124827 -4.0950494 -3.3277032 4.226962 -2.276089 -3.666503 -3.4643867
doc_397 -3.3820128 -2.9462998 -2.3149586 -2.9496553 -1.0437306 -0.7818628 -0.6508548 -4.5166764 -1.8213128 -2.1219766 1.4117504 -1.1209446 -2.6659493 -1.7871908 -0.5057116 -3.3615346 -0.66124415 4.9219007 -3.991661 0.09500611
doc_398 -4.538368 -4.1852164 -3.8289719 -6.210376 -7.3301997 -7.8146133 -6.09797 -4.6400313 -8.687752 -5.982029 -8.959989 -7.152024 -4.5473995 -1.8036156 -5.191606 -2.5005789 7.4755898 -6.4802136 -3.4121172 -8.356617
doc_399 5.8256383 -0.43142736 -3.0978057 -4.7000275 -4.8023 -6.013017 -1.0430667 -0.56647074 -3.5872588 -4.8318543 -5.912627 -0.6923094 -1.8063768 -2.9354296 -3.6585937 -1.7100924 -2.0879874 -7.0069103 -1.8307843 -6.762982
doc_400 -4.718669 -6.915483 -4.3899603 -4.817349 -5.3097525 -8.416878 -5.384468 -5.35936 -7.5260196 -5.3744707 -6.9120717 -3.796639 -5.187716 -2.8938687 -4.2973084 1.9665765 8.772726 -3.967573 -5.995914 -5.71246
doc_401 -5.1418104 -6.490407 -4.323447 0.98243177 -8.18485 -6.8359337 -4.829683 -2.8910234 -3.9516442 10.538195 -7.0432405 -4.3098264 -2.4178834 -3.4082408 -7.41797 -4.199148 -4.000224 -6.694079 -6.2444925 -6.9453855
doc_402 -1.5629996 -3.273538 -3.684358 -1.0211816 -2.2467365 -1.5956904 0.08743269 -2.739927 3.6343973 -0.7860652 -1.8498168 -1.0465988 -3.8468885 -4.234425 -0.3107508 -0.6984046 -2.0371327 -3.5512803 -3.8943653 -1.1832151
doc_403 -4.453343 -5.8435364 -4.170434 6.9504437 -5.550588 -4.9075685 -4.3500915 -4.554856 -1.8607538 -0.04266099 -5.7734246 -4.906836 -4.5074244 -4.0474486 -5.022862 -2.911812 -2.7372007 -4.5548735 -5.869343 -2.6913152
doc_404 -6.0317793 -3.8325183 -2.3695037 -3.2649324 -0.53865165 -0.453372 -3.3577013 -5.5820923 -6.3461847 -3.8392577 -0.70128196 -4.0710855 -3.6974938 -1.4220977 -2.5637062 -5.2876377 -1.9047767 5.946296 -2.6812363 -3.0642467
doc_405 -2.973088 -4.2201343 -2.8386147 -2.06057 -0.89914346 -0.9200355 4.4804387 -2.563439 -1.5697339 -3.9805522 -1.9572883 -1.443517 -4.399384 -3.2720044 -0.8109331 -1.5708011 -2.7551425 -2.022991 -4.7688193 -0.4438409
doc_406 -2.4180064 -4.4215555 -3.6210406 -3.7524717 -0.062064897 -3.757007 -3.96319 -3.2353287 -6.0152097 -3.7449386 -5.192003 -4.4553785 -3.2002766 -2.870325 -2.2381666 -2.8014615 10.748262 -3.5160227 -4.382336 -5.119847
doc_407 -1.2160274 -5.550513 -2.7271 -3.6848598 -7.7179537 -7.6175833 -2.4313335 -1.2659345 -4.885143 -4.3669963 -5.701306 -3.467466 -3.4505672 -4.755312 -2.3758974 11.00885 -0.89598626 -7.9487057 -4.443338 -6.827869
doc_408 -1.416524 -3.165498 -0.94438237 -0.4525537 -1.5284348 -1.9054936 -1.1862671 -2.273071 -2.0019047 -1.7840999 -0.8912543 -1.5564982 -2.0749304 -2.287982 0.5401601 1.5925677 -1.1708119 -0.24839626 -2.7281268 -0.096527316
doc_409 -9.445978 -8.699144 -2.4481788 -4.6914425 5.7671213 -0.13868377 -6.993276 -10.9930105 -6.5615067 -5.548378 1.4842788 -5.743438 -5.299159 -4.0242352 -3.909079 -5.0738173 -1.183338 11.212047 -8.123605 -1.0680115
doc_410 -2.4795969 -4.6935163 -2.7825472 10.066091 -2.756886 -3.389442 -2.6673656 -3.3086498 -1.4475608 0.46365535 -4.4257226 -2.7476187 -2.4574435 -1.8306173 -3.0836906 -1.6318624 -1.0280203 -1.9935327 -4.0364494 -2.4379127
doc_411 -3.7065823 -4.0409865 9.1575365 -2.1167705 -3.3648818 -3.496921 -3.4236312 -3.7658575 -2.4603457 -2.2460942 -4.4688883 -3.1774025 -3.6043944 -3.2028887 -2.64972 -1.0217116 -2.3640354 -4.2809134 -5.9872513 -4.7371845
doc_412 -9.562352 -9.845221 -3.3631167 -6.3283844 2.3545442 6.287423 -4.4455247 -13.652144 1.2122853 -7.246811 1.0852478 -5.6481028 -9.366541 -9.678009 1.7878128 -4.4442234 -4.5283217 -1.5366045 -11.077381 13.376451
doc_413 -3.2205355 -5.6660476 -1.5182427 -1.9620329 -3.6371891 -3.2449217 -1.6446093 -2.3463166 -1.3000039 -2.6150255 -1.7807807 -2.7229683 -4.0271583 -3.4959247 -1.2054986 7.588329 -2.096333 -2.6380756 -4.6594234 -0.8728256
doc_414 -2.1602314 -0.02776731 -0.98256046 -1.9186352 -5.7963758 -5.335607 -3.6777723 -2.343697 -6.626987 -4.3300495 -6.4083247 -3.7329235 -0.30545047 3.0533986 -4.2814302 -2.63464 -2.8150222 -3.398238 -1.2160922 -4.6088214
doc_415 -4.8733687 -6.088575 13.897146 -6.335381 -4.1688232 -2.5796366 -4.723343 -5.2402463 -6.15403 -7.582104 -5.8177915 -7.6738443 -6.0559006 -4.371244 -1.8902704 -4.8390217 -4.8378882 -4.9912333 -7.675952 -3.426662
doc_416 -4.062223 15.306904 -6.5040236 -22.888882 -27.546635 -24.472025 -17.940224 -0.21721387 -43.14619 -21.691963 -29.53638 -16.828358 -1.8398231 16.935482 -29.576448 -15.412882 -6.804659 -19.865416 23.967045 -27.390516
doc_417 -3.9660442 -4.2322087 -4.2227263 -5.7862473 -3.767797 -6.034526 0.49699628 -4.9661264 -1.5104625 -2.930202 -6.0626316 14.4916725 -4.0462956 -4.268473 -4.3158517 -2.9806397 -5.3304996 -4.1406236 -4.51262 -6.8306637
doc_418 -5.840527 -6.504114 -7.3468757 -4.941308 -6.434425 -8.635858 -1.2674588 -7.385799 -2.1231182 -3.550626 -6.497164 15.78154 -6.2237287 -5.825564 -8.667693 -3.7916708 -6.0772047 -6.477639 -7.5151772 -9.271929
doc_419 -8.084844 -3.5446022 -6.1741643 -4.444417 -0.02012041 -5.825292 1.3711149 -7.975618 0.12617823 -4.4916015 -3.0995893 11.197253 -4.825269 -3.7007117 -3.7283778 -4.1761794 -3.1708734 -2.8936555 -7.8410416 -5.664078
doc_420 -4.130268 -6.1519103 -2.426417 -1.623362 -3.5055099 -5.2749367 -3.178501 -3.305494 -3.4845707 -3.2328978 -0.6785732 -2.7249665 -3.173313 -4.1493564 -0.542093 7.2592654 -0.8996444 -1.7112617 -5.331414 -2.8883138
doc_421 -7.8323226 -6.0171843 -2.8645039 -3.3921306 -0.14161494 1.4460677 -3.6148276 -7.347022 -2.219677 -4.8078365 5.180892 -3.7284102 -4.0331554 -3.6664672 -1.6928241 -4.276188 -2.1323748 8.243153 -6.7310224 1.1204121
doc_422 -3.226692 -3.3792813 -3.9030025 -1.943184 -2.8776457 -1.5442982 -1.167301 -3.8123548 4.9739594 -1.4576356 -1.6040002 -2.0760307 -4.2948647 -5.1070595 -1.8498412 -1.8386731 -2.5457644 -2.5803258 -6.0824957 -2.222597
doc_423 -4.410876 -5.246952 -4.1574097 0.18987195 -3.7017033 -3.7863252 -1.7998148 -4.65793 -2.505141 5.5806828 -2.8061824 -3.4751446 -3.4899666 -2.5700092 -3.208215 -3.1654358 -2.8861196 -2.8223908 -6.011874 -4.973103
doc_424 -5.7129226 -5.646553 -3.201632 -3.5098157 -2.3938622 0.08740157 -2.7890918 -5.9472194 4.9908605 -3.314577 0.12763408 -2.991251 -6.4298825 -6.4927373 -0.40236315 -3.2915564 -3.684359 -1.4669272 -8.652122 -1.355135
doc_425 -5.9249763 -5.5002575 -3.0094736 -3.5482955 1.3471932 8.231133 -3.2193987 -7.323779 -0.4974191 -5.0480494 -0.5627002 -4.8120127 -6.819755 -3.9717646 -0.57421994 -3.4653924 -2.390559 -1.140451 -6.4863667 3.0672708
doc_426 -5.6820617 -3.8639207 -3.107848 -2.468679 1.3199806 0.17167966 -3.5268264 -5.7135935 -0.848702 -3.1677806 4.960512 -4.874839 -3.9658377 -4.6768174 1.9755666 -2.9896486 -2.1955495 2.5134993 -6.2755294 0.3891064
doc_427 -6.6676846 -8.644687 -3.5710177 -3.7054522 0.10634564 5.5008993 -3.4259188 -10.185443 2.0385587 -5.2145996 -1.2629939 -5.254966 -7.8640494 -8.056618 1.4466875 -4.431092 -4.4675255 -2.6054597 -8.207111 14.078616
doc_428 -1.0782969 -1.0231007 -2.2994766 -2.3817403 -3.7892203 -5.2941785 -3.2883072 -1.0710481 -4.6615458 -0.8666649 -2.5580106 -3.036107 6.122749 0.3584967 -3.7150111 -2.2452588 -1.6516341 -1.9709544 -1.5873244 -2.9620008
doc_429 -1.1808103 2.813734 -3.7743857 -2.4944308 -4.5622663 -4.39712 -2.5012848 -0.15587536 -6.674135 -2.8261287 -5.7133136 -1.3375738 -1.5740788 1.4419392 -6.3300934 -2.9586513 -2.0959551 -2.4541035 9.331116 -4.454536
doc_430 -2.102273 -4.178185 -3.8467176 -2.7355502 -2.4582052 -0.4787634 -0.0003872267 -4.6255193 0.029526139 -2.810991 -2.4529316 -1.9801908 -4.205328 -5.2340183 0.77815884 -2.3457701 -2.948735 -3.2839816 -5.1652975 4.008587
doc_431 -9.192483 -8.912526 -2.3168206 -5.2421966 5.6175537 16.352625 -4.125163 -10.95488 6.379541 -5.6030073 3.2284286 -7.522987 -9.831202 -9.189701 2.9218369 -6.161378 -4.7572274 -1.0917748 -10.787614 5.9495935
doc_432 -3.5506718 -4.8753676 -3.1547074 -3.7700384 -3.2654076 -4.330824 -2.9781032 -3.767875 -3.5557666 -4.7210264 -2.3254166 -4.090186 -3.8509338 -3.4924903 -0.93480444 6.712637 -1.660843 -3.7439694 -3.8392296 -2.423877
doc_433 -1.4671886 -1.9755416 -3.3049095 -4.323821 -4.5339475 -5.052958 8.411546 -1.9100839 -3.2506485 -2.5826256 -5.816474 -1.5839041 -3.9460058 -2.8742132 -3.895886 -4.7617536 -2.183252 -4.2162957 -4.5113893 -5.184427
doc_434 -4.454193 -5.545598 -3.132018 -2.9999535 -2.3786843 -0.5207957 -2.2217376 -5.9352136 0.42704248 -3.6394422 -1.5255542 -5.0447755 -5.1735454 -4.120203 3.729509 -2.963225 -1.6616194 -3.3278353 -6.140126 0.17527562
doc_435 -3.7006996 -3.8038418 -2.7018163 7.914585 -2.2710016 -2.0275152 -3.3281922 -2.045796 -0.08266509 1.0865616 -2.2243571 -3.096773 -2.117494 -2.876617 -2.6082406 -2.0683105 -2.5021613 -2.139102 -3.692698 -1.9228615
doc_436 -0.40105814 3.5197387 -3.574353 -4.3240347 -1.9380624 -3.5308926 -1.5720311 -0.85666573 -6.5958395 -3.7322438 -5.4032426 -0.325636 -2.0621545 -0.03862256 -5.444112 -3.336188 -2.8277884 -3.4873514 7.667128 -5.527566
doc_437 -3.2303689 -4.843248 -1.6877093 -2.6950219 -2.4521656 -3.958444 -2.7908716 -3.4712574 -1.4161303 -2.5679936 0.82878244 -1.7533476 -2.6596868 -2.926386 -0.7754104 9.234931 -1.8487179 -3.4226778 -4.622245 -1.6215041
doc_438 -4.812612 -6.11368 -3.0668132 10.274093 -2.7639937 -2.3580906 -4.767016 -4.267655 -1.0355722 3.286211 -3.3728147 -2.9821374 -2.9998157 -3.690565 -3.7471728 -2.4736447 -1.9363369 -2.3173025 -5.280099 -1.1729103
doc_439 -8.823266 -7.3235946 -2.8538504 -5.9879894 4.117725 11.5270815 -5.118876 -9.900286 3.047479 -5.8134985 5.314483 -7.0905128 -9.373135 -9.067627 -0.19024666 -5.5495877 -5.4376826 -1.3054677 -10.603363 2.849515
doc_440 -7.8134646 -6.223899 -2.8932903 -3.4787774 0.8993776 0.00560629 -3.6351328 -7.972223 -2.5466814 -3.1808758 8.0829315 -4.5225544 -4.791529 -5.0284305 -3.1586213 -1.681407 -3.7960162 0.81808645 -6.9704833 -1.606749
doc_441 -1.7782977 3.6097481 -2.6134465 -6.593093 -6.2853913 -5.8675423 -4.124991 -0.39510092 -10.127721 -6.269881 -7.031737 -4.545845 -1.4803567 1.2054485 -8.28941 -3.3478332 -2.5135438 -6.0211124 7.961102 -6.4559827
doc_442 -5.3306885 -6.1093254 -1.6891228 -5.032922 12.518715 3.550441 -3.972236 -8.448726 -1.9221772 -4.6106205 2.5314465 -3.6053576 -5.2561884 -6.5524335 -1.515349 -4.600898 -2.5450253 -0.4732756 -7.2852893 -0.8257418
doc_443 -5.9358497 -4.8441887 6.909687 -3.9502378 -0.15884952 -1.9898627 -5.1845484 -5.4146285 -4.065285 -5.338496 -1.1122899 -3.7076352 -5.8984113 -3.34034 -2.240789 -3.4364393 -2.3701453 0.26818323 -7.715647 -3.0585473
doc_444 -3.0714827 -3.1827633 6.4651613 -4.4177895 -3.921847 -4.982776 -5.5748124 -2.7161322 -5.0555367 -5.049404 -5.6845407 -4.4569054 -3.5051994 -3.5797625 -4.828757 -3.5844789 -4.197414 -4.641847 -5.879577 -6.348485
doc_445 -1.7199188 -1.5994536 -5.2995086 -6.969922 -7.937002 -9.785247 -3.8015969 -2.5459375 -12.085603 -7.1792393 -10.804541 -6.317857 -2.2938905 -0.75022584 -7.9778676 -3.5625818 4.3480425 -7.564527 -1.3905991 -10.239957
doc_446 -6.2021565 -4.430789 1.0358416 -4.3040605 0.8944918 -0.019795215 -3.586092 -7.916815 -5.2705483 -5.328471 -0.41555738 -4.1592965 -4.3376603 -1.5622251 -1.9736617 -4.31732 -2.7110045 8.344311 -6.900459 -0.8902284
doc_447 -3.7712195 -3.6655908 -2.0571077 -1.9457986 -0.025707211 -0.8390063 -1.8362614 -4.6544814 -1.0758908 -1.9289671 0.40708756 -2.1028638 -2.7483833 -2.3174632 -0.94282484 -2.1995049 -2.0255413 2.2795873 -3.3851154 3.5981705
doc_448 -7.004102 -6.683507 -3.402939 -4.017987 0.63431066 5.2415733 -3.4151049 -8.7340145 0.7984214 -1.5128868 0.7527646 -1.1686592 -5.0423894 -5.942925 0.13709821 -3.9082425 -3.636492 -1.4238595 -7.449282 9.034433
doc_449 -4.6838474 0.71228373 -3.6303422 -3.7565897 -6.5782204 -6.180229 -2.493791 -3.3623607 -9.001951 -4.25855 -8.015403 -3.031696 -3.0824778 8.859869 -7.0296106 -5.617078 -1.8691423 -2.7319539 -2.3430402 -6.9238133
doc_450 -2.6802616 -4.4170685 -2.0985606 6.3572297 -3.886697 -2.1669264 -2.7669263 -3.7492113 -1.5347568 0.65589195 -3.549001 -3.089619 -3.2555263 -2.1438336 -2.806758 -0.7411002 -2.1118371 -2.1886156 -4.3972726 -3.319428
doc_451 2.816497 -2.8943741 9.094313 -7.2148685 -8.191988 -7.608798 -3.0327888 -1.0895064 -8.0859785 -7.080213 -11.085028 -4.994224 -3.4452982 -3.609232 -5.904123 -3.9519334 -4.5934978 -9.377864 -3.553641 -8.391858
doc_452 -2.7078078 -6.058516 -3.8239453 0.8657463 -5.965868 -5.4807553 -4.160431 -3.6096294 -3.237502 2.8316162 -5.7140694 -3.3986125 -3.3315072 -4.225892 -5.844189 -1.539677 -3.237676 -6.906761 -5.9028597 -3.931111
doc_453 -2.0137038 -3.3070347 -4.7733603 -5.441664 -4.9862695 -6.811868 6.93186 -4.3125863 -1.619459 -4.6298075 -7.2724457 8.906661 -5.0825844 -4.8397484 -4.802437 -5.832469 -4.9598536 -3.9999437 -5.5089893 -6.2516932
doc_454 -4.533523 -4.9510956 -1.4068259 -3.9073842 -0.44335988 1.4662381 -2.3611865 -4.860219 -0.86733466 -3.1803753 -1.6855279 -2.824095 -4.4714913 -4.608073 -0.5254913 -2.740116 -1.9244038 -0.9380333 -5.538179 1.0121876
